{"name":"frontier-selfplay-value","version":1,"metadata":{"algorithm":"monte-carlo-afterstate-value","trained_episodes":733,"hand":"K1Q1R2B2N2P8SH0SN0JP0","seed":67194,"stats":{"w":274,"b":244,"draw":160}},"layers":[{"weight":[[-0.06010090932250023,0.04845279082655907,0.09810493886470795,0.15758907794952393,0.027200967073440552,0.08835133165121078,-0.0785553976893425,0.07823885977268219,-0.03130997717380524,-0.06264631450176239,0.06300374120473862,0.039034463465213776,0.04485907033085823,0.05300750955939293,-0.011330638080835342,-0.010778848081827164,0.07846005260944366,-0.06664195656776428,0.0610368549823761,0.08557800948619843,0.09620648622512817,0.10009922087192535,-0.1248369812965393,-0.07064975798130035,-0.04536372423171997,-0.039953719824552536,0.02673177234828472,0.049566470086574554,0.08702172338962555,0.061551257967948914,0.0784291923046112,-0.018756676465272903,0.04961032420396805,0.05324966087937355,0.09725075960159302,-0.12870068848133087,0.046556588262319565,0.07980061322450638,0.044611331075429916,-0.023471496999263763],[0.05394982919096947,0.07794097065925598,0.04552886635065079,0.09952883422374725,-0.004452305845916271,-0.006698249373584986,0.017463363707065582,-0.06972971558570862,-0.05452101677656174,-0.07450944185256958,-0.05032053962349892,0.027199050411581993,0.010331281460821629,0.016452644020318985,0.06871280819177628,0.052780523896217346,0.07530275732278824,-0.015236767940223217,0.046285081654787064,0.06470465660095215,0.16535459458827972,0.09357529878616333,0.05352228507399559,-0.1099715605378151,-0.07479699701070786,-0.007761387620121241,-0.020440081134438515,-0.003561629680916667,0.03991269692778587,0.008105260320007801,0.05441593751311302,0.08185978978872299,-0.012434588745236397,0.07868988811969757,0.10990653932094574,0.023284168913960457,-0.017349906265735626,0.08583973348140717,-0.030973339453339577,-0.043147314339876175],[0.04593180492520332,0.030376721173524857,-0.04202335700392723,-0.1485021561384201,-0.03980536758899689,-0.10587123781442642,0.039546240121126175,0.039546575397253036,0.05452209338545799,-0.02576971799135208,-0.01071638148277998,0.04954886808991432,-0.1201636791229248,-0.08117542415857315,-0.06589696556329727,0.005475799553096294,-0.055531710386276245,0.013381746597588062,0.01908048614859581,-0.1099223718047142,-0.091189906001091,-0.08174490183591843,0.0794278159737587,0.09186404943466187,0.07348065823316574,0.03174765035510063,0.016702359542250633,-0.03452515974640846,-0.039962414652109146,0.012030050158500671,0.07612678408622742,0.06235674023628235,-0.01698574796319008,-0.02306082844734192,-0.036814458668231964,0.07521071285009384,-0.011834431439638138,-0.016239143908023834,0.03645613044500351,-0.020765770226716995],[0.03179069608449936,-0.050322696566581726,-0.04280399531126022,0.028299901634454727,-0.023502277210354805,-0.05279824882745743,0.0010208247695118189,0.056652605533599854,-0.05521363765001297,-0.015569159761071205,0.039050713181495667,-0.028777504339814186,0.005301367491483688,-0.03734501078724861,-0.0226153377443552,0.06820353865623474,0.013219342567026615,0.01963215135037899,0.0551428459584713,-0.008112956769764423,-0.00025964915403164923,0.022587615996599197,0.03307097777724266,0.06998544931411743,-0.07294689118862152,-0.047616906464099884,-0.037837520241737366,0.017428701743483543,0.06311269849538803,-0.05836612731218338,-0.053589288145303726,-0.07839647680521011,0.022275347262620926,-0.045955121517181396,0.07301949709653854,0.026519417762756348,-0.07418281584978104,-0.052108634263277054,0.014927062205970287,-0.029849568381905556],[0.03232152760028839,-0.068337082862854,0.0026219396386295557,0.004294553305953741,-0.024285869672894478,0.0060007767751812935,0.0019882372580468655,0.0335489958524704,0.06623638421297073,0.007075637578964233,0.023232655599713326,-0.016919024288654327,0.044625766575336456,0.02017645165324211,-0.03027835488319397,-0.022535836324095726,-0.06237734854221344,-0.06378984451293945,-0.03612014278769493,0.010351421311497688,0.04885172098875046,-0.032070811837911606,-0.028439095243811607,-0.07420473545789719,-0.04475373402237892,-0.05030808970332146,0.016632460057735443,0.009014439769089222,0.0034321853891015053,-0.06439235061407089,-0.0244077667593956,-0.042436469346284866,-0.06398914754390717,-0.04836507514119148,-0.02461211197078228,0.003988992422819138,0.034676529467105865,0.013364162296056747,0.038015589118003845,-0.013066340237855911],[-0.04886765405535698,0.03634842485189438,0.06511407345533371,0.15078657865524292,0.061692975461483,0.16489548981189728,0.06424899399280548,0.018942197784781456,0.04529264569282532,-0.010421696119010448,-0.03689779341220856,0.0010336858686059713,-0.03497377038002014,-0.0065812161192297935,0.10815173387527466,0.00829242542386055,0.05639876052737236,0.05141061171889305,0.09908124059438705,0.18216060101985931,0.1683940589427948,0.21315254271030426,-0.08452965319156647,-0.06283612549304962,-0.1722681224346161,-0.03776346519589424,0.044794466346502304,-0.07965505123138428,0.04990028589963913,2.412061076029204e-05,-0.04646559804677963,-0.009732158854603767,0.09036997705698013,-0.015750695019960403,0.1235918253660202,-0.08234545588493347,0.06857112050056458,0.07225905358791351,0.015107384882867336,-0.01739400438964367],[-0.0268065445125103,-0.03851456940174103,0.001833338406868279,-0.15795966982841492,-0.04354686290025711,-0.07869137078523636,0.07296457886695862,-0.009848575107753277,0.04353848099708557,-0.021836545318365097,0.036157283931970596,0.04263494908809662,0.018349112942814827,-0.029093004763126373,-0.05128306895494461,0.008731498382985592,-0.039410822093486786,0.03348042443394661,-0.08710556477308273,-0.10503286868333817,-0.10545191168785095,-0.17131111025810242,0.06837145239114761,0.20509466528892517,0.11030705273151398,-0.02176135592162609,-0.013508543372154236,0.04484124109148979,-0.060697801411151886,-0.03465396165847778,0.05944881588220596,-0.07527342438697815,-0.028824500739574432,0.1183546707034111,-0.02496308647096157,0.017517318949103355,0.05429724231362343,-0.0435277558863163,-0.02039056271314621,0.08483725041151047],[-0.045183323323726654,0.014487025327980518,-0.03821403160691261,-0.03475918620824814,0.04832887277007103,-0.07668138295412064,-0.007656048983335495,0.05983688682317734,-0.07462180405855179,-0.062178611755371094,0.0019603234250098467,-0.00114728813059628,0.0368339903652668,-0.010725448839366436,0.01286283228546381,-0.07546833902597427,0.07164144515991211,-0.02837400697171688,-0.050875693559646606,-0.03350168839097023,-0.04859672114253044,0.00912078469991684,0.006696534808725119,-0.030918918550014496,0.04876347631216049,-0.0353400781750679,0.07614923268556595,-0.04274105653166771,-0.058782078325748444,0.027151914313435555,-0.009927262552082539,-0.07687350362539291,-0.06023293361067772,0.059214964509010315,-0.05217597261071205,0.06938361376523972,-0.06916362792253494,-0.052130863070487976,0.0672023743391037,-0.054682407528162],[0.027818776667118073,0.031012991443276405,0.07890115678310394,-0.07442395389080048,0.02149168960750103,0.028380010277032852,-0.005461378023028374,-0.03395751118659973,0.021036984398961067,-0.04840144142508507,0.030332960188388824,-0.059360288083553314,0.013903116807341576,0.03909572958946228,-0.056063927710056305,-0.07853814214468002,-0.025671377778053284,-0.0019704776350408792,-0.07102232426404953,-0.04008744657039642,0.02065438963472843,-0.01110012736171484,-0.08986952155828476,-0.011957673355937004,0.006525444332510233,-0.0070730880834162235,0.06035582348704338,-0.024055657908320427,-0.07861042022705078,-0.04881877452135086,0.061227947473526,-0.086147241294384,-0.0451883040368557,-0.08901379257440567,-0.029493490234017372,-0.027235301211476326,0.0035203960724174976,-0.035566192120313644,-0.0039420658722519875,0.0006333474884741008],[0.05162207782268524,-0.059124480932950974,0.08058945089578629,-0.008551372215151787,-0.054375987499952316,0.03239213675260544,0.05651174113154411,-0.05446029081940651,0.030180947855114937,0.0804608017206192,-0.05095786228775978,-0.050829216837882996,-0.05327669903635979,0.04974910616874695,0.0028248189482837915,0.017443614080548286,0.025788184255361557,0.07138512283563614,-0.1439729481935501,0.02440340630710125,0.11732205003499985,0.09080343693494797,0.05275293067097664,-0.08184676617383957,-0.1542229950428009,-0.03907390683889389,-0.02260410226881504,-0.03627278283238411,-0.0580100417137146,-0.019675200805068016,0.026898976415395737,-0.021847959607839584,-0.11900380998849869,-0.15505452454090118,-0.17327745258808136,-0.012128164991736412,0.06596285104751587,0.010531564243137836,-0.03310935199260712,0.06359467655420303],[0.014721530489623547,0.11116398125886917,0.01269720122218132,0.17497830092906952,0.04541260376572609,0.13328397274017334,0.019057871773838997,0.04105883464217186,0.0531662292778492,-0.07133504003286362,-0.023524945601820946,0.0033973106183111668,-0.04174647480249405,0.07496839761734009,0.01996867172420025,0.07738802582025528,-0.004620507825165987,-0.012589883990585804,0.13575837016105652,0.09189794212579727,0.1720319539308548,0.2308652698993683,0.0005214108387008309,-0.1507430076599121,-0.05887848883867264,-0.07138688117265701,0.08843502402305603,-0.06168864294886589,0.03830678388476372,0.026346571743488312,-0.06811854988336563,-0.009630910120904446,0.08139394968748093,0.051215123385190964,0.12474246323108673,-0.025234175845980644,-0.053464390337467194,-0.00039270531851798296,0.05016525089740753,0.024386199191212654],[0.020166747272014618,0.011185585521161556,0.08091892302036285,0.13854649662971497,0.0960559993982315,0.04083120450377464,0.011029517278075218,0.007781855762004852,0.009142269380390644,0.023305770009756088,-0.003889267100021243,0.01976785622537136,0.01770855486392975,0.1393194943666458,-0.01857706531882286,-0.05331077054142952,0.0018717861967161298,0.06526918709278107,0.1450716108083725,0.0769023597240448,0.2034306824207306,0.12810559570789337,0.06643713265657425,-0.05147663876414299,-0.0672583281993866,0.05119266360998154,-0.02046465501189232,0.00038119428791105747,0.09849037230014801,-0.01661103032529354,0.08454000949859619,0.10648669302463531,0.0166978407651186,-0.050445400178432465,0.11642622202634811,0.03363119438290596,-0.058347590267658234,0.011732887476682663,0.014344521798193455,0.0017910149181261659],[0.011338521726429462,-0.1458374559879303,-0.015557091683149338,-0.07130373269319534,-0.11167149990797043,-0.05190612003207207,0.03513732925057411,-0.03781668096780777,-0.007741456851363182,0.04795992746949196,0.03321903944015503,0.09065204858779907,0.006731635890901089,-0.06728757917881012,-0.14134401082992554,0.06885354220867157,0.053893834352493286,-0.05870563164353371,-0.09398876130580902,-0.088624507188797,-0.1308358907699585,-0.10401584208011627,0.05394267663359642,0.16791702806949615,0.21620945632457733,0.06273193657398224,0.0075011299923062325,0.06833074241876602,-0.05586114525794983,-0.03639671579003334,-0.010628996416926384,9.542179759591818e-05,0.05775449797511101,0.05723463371396065,-0.040449369698762894,0.16426017880439758,0.025415921583771706,0.054543979465961456,-0.07405170053243637,-0.07213634997606277],[-0.07208238542079926,-0.026880988851189613,0.11693131178617477,0.08560668677091599,0.12116161733865738,0.09499111026525497,-0.009212044067680836,0.06508935987949371,0.033543411642313004,-0.03964774310588837,-0.036864981055259705,-0.10562458634376526,0.04002135619521141,-0.002410707762464881,-0.0019492200808599591,-0.06907147169113159,-0.005455856677144766,0.02088843286037445,0.1180143877863884,0.09922455996274948,0.10718490928411484,0.1940472424030304,-0.033890195190906525,-0.09940648078918457,-0.12084510177373886,-0.0409211590886116,0.005875807721167803,0.007157833781093359,0.0664682611823082,-0.03471102565526962,-0.05345573276281357,0.075278140604496,0.014886249788105488,0.01928880251944065,0.07770116627216339,0.03529283031821251,-0.01864415965974331,-0.07681513577699661,0.043107617646455765,-0.036056291311979294],[-0.08285041153430939,0.030647486448287964,-0.013012172654271126,0.06289206445217133,-0.03429233655333519,-0.01697440631687641,0.005170363467186689,-0.07726043462753296,0.051578350365161896,0.05787203833460808,-0.06879688054323196,-0.059307076036930084,-0.022356513887643814,0.07329243421554565,0.03491908311843872,-0.034646619111299515,0.07143762707710266,-0.02906842529773712,-0.009856312535703182,-0.026661770418286324,0.02646808698773384,0.042717345058918,-0.06377904862165451,-0.0073814052157104015,-0.03935634717345238,0.07395051419734955,-0.013926869258284569,0.003883675904944539,-0.054258838295936584,-0.024103613570332527,-0.07682444900274277,0.034553296864032745,0.039680395275354385,-0.06525096297264099,0.03677542135119438,0.05809447914361954,-0.03728877753019333,-0.07467318326234818,-0.014224390499293804,-0.03389924392104149],[-0.00015018845442682505,0.01324169710278511,0.010352514684200287,0.003298336174339056,-0.007524528075009584,0.10459902137517929,-0.05693376809358597,-0.06320079416036606,0.07557616382837296,0.0053303479216992855,0.030358808115124702,-0.021824700757861137,-0.09229937195777893,-0.009991339407861233,-0.022271722555160522,-0.0017946388106793165,-0.0653412789106369,0.06951860338449478,-0.00722169317305088,-0.015590145252645016,-0.0847230777144432,-0.06662125140428543,0.06566306948661804,0.0956093817949295,0.158858522772789,0.04386095330119133,0.03771142289042473,0.011648541316390038,0.052001502364873886,0.06276179105043411,0.05923616513609886,-0.04605270177125931,0.13078126311302185,0.05536560341715813,0.09404242783784866,0.14483962953090668,0.0948788970708847,-0.025761114433407784,0.03861936181783676,0.010092511773109436],[-0.051828838884830475,-0.07211761921644211,-0.04380778595805168,-0.012195615097880363,0.07804819196462631,-0.0627535730600357,0.06888800859451294,0.004544789902865887,-0.05204852297902107,-0.024145787581801414,-0.002082018880173564,-0.0249418243765831,-0.07468574494123459,0.04027603194117546,0.021374111995100975,0.03853727504611015,-0.06935632228851318,0.0660049244761467,-0.006382393185049295,-0.04258966073393822,-0.02429170161485672,-0.06709840148687363,0.006509977392852306,0.07211338728666306,-0.06579313427209854,0.03575414791703224,0.055096305906772614,0.03004014492034912,-0.04126349836587906,-0.061780817806720734,-0.03492427617311478,-0.04598206654191017,-0.07513237744569778,0.0055618747137486935,0.03732098639011383,0.01186937652528286,-0.07132307440042496,-0.05906382203102112,0.03947987034916878,-0.001287186169065535],[-0.06707765907049179,-0.07084563374519348,0.010357986204326153,-0.030733827501535416,-0.02530033327639103,-0.16371941566467285,0.06972835958003998,0.05426199734210968,0.05006123706698418,-0.0010916334576904774,-0.03870636969804764,0.0881713256239891,0.03973193094134331,-0.029714807868003845,-0.04327814280986786,0.023304680362343788,0.030583003535866737,-0.05637351796030998,-0.10745440423488617,-0.05610533803701401,-0.11763998121023178,-0.09907079488039017,0.11171866953372955,0.20425674319267273,0.17773127555847168,-0.005166828166693449,0.030786583200097084,-0.04284742474555969,-0.024528734385967255,0.051207758486270905,0.021139759570360184,-0.013531981967389584,-0.023975154384970665,0.09189418703317642,-0.09732139110565186,0.08591391146183014,0.06832518428564072,0.05509712174534798,0.05943365395069122,0.05245498940348625],[-0.05976011976599693,-0.10770486295223236,0.034581296145915985,-0.0759768933057785,0.023220079019665718,-0.12397812306880951,-0.06368914991617203,0.028695976361632347,0.06345341354608536,0.03773261979222298,0.0015372459311038256,0.03886599466204643,-0.028577348217368126,-0.10627487301826477,-0.14160731434822083,-0.016056513413786888,-0.045663170516490936,0.03642283380031586,-0.03949350491166115,-0.07900591194629669,-0.18389883637428284,-0.12107791006565094,0.00029800779884681106,0.15334004163742065,0.11663772165775299,0.07403849810361862,-0.04455089941620827,0.05056590586900711,-0.005271590314805508,-0.012520313262939453,-0.05744783580303192,0.05231253057718277,0.08223079144954681,0.0875101238489151,-0.04525305703282356,0.04324116185307503,0.055477384477853775,0.07374928891658783,0.008453556336462498,0.06929609924554825],[-0.04302329197525978,0.07309118658304214,0.07614580541849136,0.1465250551700592,0.0990806445479393,0.1348998248577118,-0.02988477796316147,0.07361871749162674,-0.0690566897392273,-0.030977845191955566,-0.03494688868522644,-0.015036496333777905,-0.0344618558883667,0.024118032306432724,0.07922418415546417,0.056556202471256256,-0.029803788289427757,-0.05523478612303734,0.023584939539432526,0.12348350137472153,0.1828068494796753,0.09113074094057083,0.010216668248176575,-0.0023336531594395638,-0.12852494418621063,-0.07728169113397598,0.07245244830846786,0.04025466367602348,0.031346213072538376,0.021927418187260628,-0.06813254207372665,-0.05788910388946533,0.09479942917823792,0.039983589202165604,0.05375795438885689,-0.03641820698976517,0.07204113155603409,0.06447552144527435,-0.07066256552934647,0.010030980221927166],[0.07822524011135101,-0.022665731608867645,-0.04120387136936188,0.04350727051496506,-0.04621439054608345,-0.029881630092859268,-0.06638599932193756,-0.06908471882343292,-0.06935056298971176,0.062475383281707764,-0.0470203272998333,0.04141516238451004,0.0482991561293602,-0.03352091461420059,0.02321462146937847,0.042886871844530106,0.07717080414295197,0.03495055437088013,-0.07892103493213654,-0.059258125722408295,0.0678209513425827,0.03561388701200485,-0.044768042862415314,0.06211293488740921,-0.06651771068572998,0.028788337484002113,-0.05510555952787399,-0.019233256578445435,-0.04543397203087807,-0.011496993713080883,-0.10039372742176056,0.0012215696042403579,-0.07044949382543564,0.0548052079975605,-0.008950724266469479,-0.022675322368741035,0.009716632775962353,-0.04447966814041138,0.007215538527816534,-0.001590576022863388],[-0.015256738290190697,-0.0329691506922245,0.052840426564216614,-0.07023786753416061,0.010191286914050579,-0.05194436013698578,0.05688512325286865,0.06572308391332626,0.0026367707177996635,-0.011054408736526966,-0.04691176116466522,0.0483207069337368,-0.009777635335922241,0.03613470867276192,0.05304057151079178,-0.004403408616781235,-0.01419539749622345,0.06959286332130432,-0.07312644273042679,-0.003938381560146809,-0.041974056512117386,0.04824239760637283,-0.07164055109024048,-0.01909848116338253,0.06417670845985413,-0.03670845553278923,-0.035034678876399994,0.043562911450862885,-0.03000062331557274,-0.02895197831094265,-0.032177895307540894,-0.019299425184726715,-0.07661226391792297,-0.04415511339902878,-0.05395068600773811,-0.04504737630486488,0.0020331793930381536,0.020523762330412865,0.07472565770149231,0.03729623556137085],[0.0462285540997982,-0.11212844401597977,-0.010183028876781464,-0.06288526207208633,-0.006587007082998753,-0.10312934219837189,-0.026508724316954613,-0.024336209520697594,0.02237905189394951,-0.005034610629081726,-0.035651035606861115,0.029259569942951202,0.023135870695114136,0.008462796919047832,-0.10014671087265015,-0.0323178805410862,-0.009229976683855057,0.07306919991970062,-0.10622359067201614,-0.050151269882917404,-0.24213269352912903,-0.10834567993879318,0.08850158751010895,0.19865043461322784,0.19135595858097076,-0.053815387189388275,0.0733368992805481,-0.04047546535730362,-0.10200588405132294,-0.020365549251437187,-0.05465732514858246,0.046588290482759476,-0.05823157727718353,0.11576154083013535,-0.005905331112444401,0.07900018244981766,0.05189476162195206,0.023190384730696678,-0.04129272699356079,-0.021380668506026268],[0.021724050864577293,-0.06687132269144058,-0.01057618111371994,-0.13335874676704407,-0.022050490602850914,0.021585112437605858,-0.043579649180173874,-0.009018192067742348,0.001348237507045269,-0.0016484430525451899,0.003983261529356241,0.06438879668712616,0.036885593086481094,-0.08249705284833908,-0.10933823138475418,0.07146240025758743,0.05610697343945503,0.04164445772767067,-0.05550813302397728,-0.08410884439945221,-0.15923218429088593,-0.18415307998657227,0.02270997129380703,0.1762688010931015,0.13835470378398895,0.0008019554661586881,0.0527256615459919,-0.024403179064393044,-0.0008521073614247143,-0.004155667964369059,-0.07350995391607285,0.06097682565450668,0.058878012001514435,0.043037109076976776,-0.014634336344897747,0.08730131387710571,-0.03063502348959446,0.09339167177677155,0.04816815257072449,0.009516170248389244],[0.040825728327035904,0.06317640841007233,-0.027426287531852722,0.11172235757112503,0.05466317757964134,0.028184659779071808,-0.06032674387097359,-0.007092901971191168,0.041812457144260406,0.06232823058962822,0.014562754891812801,-0.019022908061742783,0.024661831557750702,0.03153703734278679,0.05951700359582901,-0.06537004560232162,0.008825693279504776,-0.008994828909635544,0.0629676952958107,0.18166054785251617,0.08538742363452911,0.17635484039783478,-0.11787796765565872,-0.14078274369239807,-0.07302532345056534,-0.03432120382785797,0.046208079904317856,0.020616527646780014,0.13038085401058197,-0.037709590047597885,-0.05263269320130348,-0.005092913750559092,0.015100589953362942,-0.02005617320537567,0.14178311824798584,-0.004840688779950142,0.024206263944506645,0.052433401346206665,-0.012122218497097492,0.040019772946834564],[0.06143267825245857,0.03787611052393913,-0.015772908926010132,-0.053987834602594376,0.016086317598819733,0.042555127292871475,0.005487734917551279,0.07402212917804718,-0.05538352578878403,0.014366990886628628,0.019224779680371284,-0.05005978047847748,0.011511923745274544,0.04460082948207855,-0.06413692235946655,-0.0016568668652325869,-0.060810815542936325,-0.013661088421940804,-0.02835540659725666,0.03677462413907051,0.004576620180159807,0.06345684081315994,-0.0827905684709549,0.04552757367491722,-0.04312749207019806,-0.051417432725429535,-0.04324708506464958,0.06288910657167435,0.07656166702508926,0.06117788702249527,0.001839320408180356,0.03810106962919235,-0.030701054260134697,-0.03397016599774361,0.0040711346082389355,0.018841827288269997,0.007920481264591217,-0.0667557492852211,0.05096869915723801,-0.01612543687224388],[0.01970268227159977,0.12141744792461395,0.08586933463811874,0.05967624858021736,0.001971354940906167,-0.005080595146864653,0.019317105412483215,0.056394629180431366,-0.07119041681289673,-0.03146154433488846,0.042346447706222534,-0.06605266034603119,0.06524874269962311,0.10415303707122803,0.026735881343483925,0.07215084880590439,0.060640715062618256,-0.036905594170093536,0.03144209086894989,0.0879574865102768,0.16116540133953094,0.08775988966226578,-0.015293847769498825,-0.14948037266731262,-0.06871862709522247,0.06442727148532867,-0.007674104068428278,0.06831659376621246,-0.016796505078673363,-0.024783413857221603,0.06399016082286835,0.07161850482225418,0.03779954835772514,0.019867289811372757,0.12961599230766296,-0.1467180699110031,-0.05706125497817993,0.021485526114702225,-0.06789850443601608,0.028523942455649376],[0.02102077379822731,0.12497947365045547,-0.09306181967258453,-0.1573566049337387,0.024358337745070457,-0.07842102646827698,-0.05211907625198364,0.04261180758476257,0.031428027898073196,-0.02344607189297676,0.08084961026906967,-0.053317125886678696,0.08060815930366516,0.048700567334890366,-0.047231752425432205,-0.03831895440816879,0.02432548813521862,0.042628269642591476,0.000404513644753024,-0.05941080302000046,-0.12350735068321228,-0.15764720737934113,-0.05641426518559456,0.1423557996749878,0.10347240418195724,0.06744038313627243,-0.060288675129413605,-0.02166692540049553,-0.03742145746946335,-0.0876205712556839,0.08193866908550262,0.016190843656659126,-0.04173697903752327,-0.04495163634419441,-0.011804996989667416,0.08241765201091766,-0.03369290754199028,0.023891514167189598,0.026720503345131874,0.06936589628458023],[0.02380220964550972,-0.07971136271953583,-0.005902035627514124,-0.11955060064792633,0.020737119019031525,-0.04753914102911949,-0.04711739718914032,0.07638904452323914,-0.055106863379478455,0.06794898211956024,0.00362201570533216,0.021471478044986725,-0.022098861634731293,-0.022586334496736526,-0.01776363141834736,0.006336966995149851,-0.06545877456665039,0.061558082699775696,-0.06480345875024796,-0.13153569400310516,-0.14204294979572296,-0.21464665234088898,0.07973724603652954,0.12790170311927795,0.06858937442302704,-0.02078186720609665,-0.019307315349578857,0.05713959410786629,-0.04872574284672737,-0.029836505651474,-0.07543157041072845,-0.06803480535745621,0.03303415700793266,0.07552727311849594,0.03997901454567909,0.09799551218748093,-0.06180126592516899,0.05336429178714752,-0.06290940195322037,-0.007075995206832886],[0.06869551539421082,0.024892533197999,-0.0839567556977272,-0.018086502328515053,0.01183613296598196,-0.10259006917476654,-0.020615877583622932,0.06187329441308975,0.011726477183401585,-0.0332462415099144,0.03273151442408562,0.013256672769784927,-0.02117106504738331,-0.04723341017961502,-0.027726516127586365,0.07421212643384933,-0.018836354836821556,-0.07244418561458588,0.03606168180704117,0.03134787082672119,-0.023918259888887405,-0.03479623422026634,0.1502915918827057,0.08702386170625687,0.06875188648700714,-0.05593293532729149,-0.11881313472986221,-0.024211015552282333,-0.05149444192647934,-0.11082634329795837,0.024330899119377136,-0.024600932374596596,0.03638564422726631,0.013389209285378456,-0.013629727996885777,0.09621273726224899,-0.04170655831694603,0.02677961438894272,0.06913206726312637,-0.05948232486844063],[0.07844321429729462,0.07287726551294327,0.10915124416351318,0.04852518066763878,0.03209476172924042,0.09353958815336227,0.01010284572839737,-0.014347542077302933,-0.03622022643685341,-0.034878749400377274,0.06898830831050873,-0.01578471250832081,-0.034519586712121964,0.14281432330608368,-0.0024672881700098515,-0.023593712598085403,-0.04461156949400902,0.008278033696115017,0.06467778235673904,0.06946580111980438,0.11165785044431686,0.10180674493312836,-0.09902410954236984,-0.1707320660352707,-0.17485646903514862,-0.004307114984840155,0.07784814387559891,-0.05587087571620941,0.12648722529411316,0.057173989713191986,0.09049379080533981,0.04829149693250656,0.012394449673593044,-0.027658743783831596,0.13333293795585632,-0.01609690859913826,-0.0492980033159256,0.09554708749055862,-0.09407719224691391,0.06302662193775177],[-0.08509326726198196,-0.09865324944257736,-0.008455389179289341,-0.15997304022312164,0.025630876421928406,-0.11453045904636383,-0.009939124807715416,0.03683071583509445,0.05283932760357857,0.01415432058274746,-0.04310308396816254,0.057350512593984604,0.024788176640868187,-0.13389621675014496,-0.07152656465768814,0.024862205609679222,0.015830090269446373,-0.07137465476989746,-0.06361674517393112,-0.09029611945152283,-0.15168160200119019,-0.18111248314380646,0.02526766061782837,0.22261011600494385,0.10829044133424759,-0.07764091342687607,0.025932282209396362,0.032984524965286255,-0.031047584488987923,0.01486547477543354,0.07909560948610306,-0.0032477155327796936,0.07410404831171036,0.02108496055006981,-0.0938682109117508,0.030879303812980652,0.021666860207915306,0.06071491166949272,-0.015064273029565811,0.013958307914435863]],"bias":[0.012103983201086521,0.013358654454350471,0.0033830872271209955,-0.0056608570739626884,0.0,0.019475683569908142,0.02303740568459034,0.0,-0.015807731077075005,-0.009744133800268173,0.0032992996275424957,0.01973562501370907,0.0071858130395412445,0.001625496195629239,-0.006572943180799484,0.025361793115735054,0.0,0.009551085531711578,0.008285568095743656,0.018515098839998245,-0.025492526590824127,0.0,0.006167663726955652,0.029043925926089287,0.005669881124049425,-0.015801064670085907,0.004239244852215052,0.029418380931019783,0.008550434373319149,-0.00425637885928154,0.02337021753191948,0.022396964952349663]},{"weight":[[0.06870162487030029,-0.07685476541519165,-0.010884835384786129,-0.0587974414229393,0.05201193317770958,0.07374591380357742,-0.0223722942173481,-0.07168992608785629,-0.008888033218681812,0.05592203140258789,-0.0367404967546463,-0.06955556571483612,-0.06539057195186615,-0.012088226154446602,0.046153295785188675,-0.03692837059497833,-0.06935933232307434,0.02163151651620865,0.03898005560040474,-0.031012246385216713,0.018438266590237617,-0.04842425510287285,0.037952885031700134,-0.07149284332990646,-0.07417809218168259,-0.02442554011940956,-0.016696488484740257,0.06620500236749649,-0.0100620212033391,0.03873712942004204,-0.07635572552680969,-0.03955285996198654],[-0.05686661973595619,0.005475776270031929,0.11274739354848862,-0.07916729897260666,0.02764507383108139,0.014654159545898438,0.05653348192572594,-0.03164291009306908,-0.0493844598531723,-0.1476733684539795,-0.02729591727256775,0.018588325008749962,0.14651723206043243,-0.07275453954935074,0.022312695160508156,0.018092039972543716,-0.004762193188071251,0.11046568304300308,0.05390048772096634,-0.010539032518863678,0.08067493140697479,-0.04179860278964043,0.1532822847366333,0.036477554589509964,-0.02190152183175087,-0.027244439348578453,-0.07926573604345322,0.0397544763982296,0.03831077367067337,0.122004933655262,-0.043389685451984406,0.16092146933078766],[0.08526802808046341,0.061564236879348755,-0.07700996845960617,-0.009332406334578991,0.017372334375977516,0.04790271446108818,-0.10690347850322723,0.06899664551019669,-0.05988743156194687,0.08994533121585846,0.09119242429733276,-0.0062938267365098,0.002818465931341052,-0.0018941800808534026,-0.06714100390672684,0.06661304086446762,0.0027911632787436247,-0.039708491414785385,0.001846086117438972,0.07885653525590897,0.011652741581201553,-0.046899743378162384,-0.0371677428483963,-0.023928215727210045,0.06212889403104782,-0.07246370613574982,0.05312797799706459,-0.12881116569042206,-0.12968657910823822,0.024752072989940643,0.013922481797635555,-0.14883340895175934],[0.013569319620728493,0.013259628787636757,0.028852302581071854,-0.0694207027554512,-0.058419760316610336,-0.07977056503295898,0.07513267546892166,0.06772913038730621,-0.04346688464283943,-0.19945880770683289,0.014783505350351334,0.03447101265192032,0.12736859917640686,0.01662529818713665,0.050298288464546204,0.0455072745680809,-0.012118698097765446,0.04507666081190109,0.012476042844355106,0.038151465356349945,0.09704164415597916,0.060848187655210495,0.07302846759557724,0.09081926196813583,-0.07021811604499817,-0.019862152636051178,-0.1266619712114334,-0.0717640370130539,0.1325598955154419,0.09824908524751663,-0.03780972957611084,-0.006834325846284628],[-0.08022778481245041,0.051652148365974426,0.1355804204940796,-0.08462651818990707,-0.03693905472755432,-0.05280854180455208,0.10498275607824326,-0.05733434483408928,-0.011030460707843304,-0.15321363508701324,0.010143308900296688,0.02703029103577137,0.01273755356669426,-0.048224784433841705,0.06563365459442139,-0.0424448661506176,0.047754671424627304,0.10569058358669281,0.04718650132417679,0.06562802195549011,-0.05890074744820595,0.012157601304352283,0.14977064728736877,0.006351565010845661,-0.00550626777112484,0.08505307883024216,-0.05201420187950134,0.08078950643539429,0.08679784089326859,0.0046215602196753025,-0.00934059638530016,0.04773835837841034],[-0.09137161821126938,-0.0453130267560482,0.015340130776166916,0.041247401386499405,0.04978146031498909,0.05561615899205208,-0.06551293283700943,-0.004329086747020483,-0.04249519482254982,0.023464780300855637,0.03823962062597275,-0.0485682338476181,-0.014147859066724777,-0.060303542762994766,0.05032971128821373,0.06173718720674515,0.03175022453069687,-0.08093889057636261,0.0197896771132946,-0.0020057661458849907,0.03488922119140625,0.014982644468545914,0.01209226157516241,0.07913962751626968,-0.06147264316678047,-0.06290245056152344,-0.06932948529720306,-0.03553302213549614,0.018914148211479187,0.04169447347521782,0.04555271193385124,-0.08142708241939545],[-0.00812308955937624,0.022555679082870483,-0.06374163180589676,0.04109591618180275,-0.0665210634469986,0.07095280289649963,-0.05381767824292183,0.048505768179893494,0.01864432729780674,0.09609562158584595,0.12347181141376495,0.06576798111200333,-0.12475104629993439,0.1069050058722496,0.06275767087936401,0.009561121463775635,0.007056902162730694,-0.12432154268026352,-0.028899697586894035,0.09795951098203659,0.008610924705862999,0.05199538543820381,-0.09126149117946625,-0.09754995256662369,0.08699126541614532,-0.019900541752576828,0.10238514840602875,0.0023881494998931885,0.017068704590201378,-0.06416279822587967,0.13272501528263092,-4.314735997468233e-05],[-0.030227694660425186,-0.048268821090459824,0.0021698917262256145,-0.044715363532304764,0.047982435673475266,-0.0680856704711914,0.010824022814631462,0.025041669607162476,0.049802567809820175,0.05988818407058716,-0.011705112643539906,-0.07107336074113846,0.026363592594861984,0.06612929701805115,0.002590846037492156,-0.07967942953109741,0.06477255374193192,-0.02946295402944088,-0.03880409896373749,0.02396799996495247,-0.037216316908597946,0.060434259474277496,-0.06291764974594116,-0.05505799129605293,-0.0519091859459877,0.05801722779870033,-0.022436603903770447,-0.0604148805141449,-0.04339933395385742,-0.043861858546733856,0.041266292333602905,0.050605203956365585],[0.10098759829998016,-0.04928090423345566,-0.042000941932201385,-0.007700968533754349,0.04355361685156822,0.06271598488092422,-0.10410363227128983,0.046635933220386505,-0.05307589843869209,0.052625108510255814,0.0062826285138726234,0.12259985506534576,0.0008090107003226876,0.1473558098077774,0.06107579916715622,0.016776343807578087,-0.03052230179309845,-0.04314080625772476,0.01238765474408865,0.04195553436875343,-0.07174567878246307,0.045489829033613205,-0.05587359145283699,0.01089360099285841,0.025891290977597237,-0.011927440762519836,0.13713465631008148,-0.1185137927532196,-0.09316204488277435,-0.025215646252036095,0.09049731492996216,-0.042844317853450775],[0.09024184942245483,0.029853928834199905,-0.1127130538225174,0.05977025628089905,-0.016971640288829803,0.04673337936401367,-0.144992396235466,-0.02132941037416458,0.02435854822397232,0.025090958923101425,0.15405508875846863,0.014246227219700813,0.03391784429550171,0.003775812452659011,0.04044084995985031,-0.03040652722120285,-0.07725034654140472,-0.0715259239077568,-0.02035997062921524,0.07070314884185791,-0.003906292840838432,0.05496443808078766,-0.09891397505998611,0.026813697069883347,0.09471321105957031,0.005286418832838535,0.0057449741289019585,-0.08572949469089508,-0.08875945955514908,0.0030518812127411366,0.07506165653467178,-0.07264287769794464],[0.10808665305376053,0.01639591157436371,-0.06375163793563843,0.059892669320106506,-0.02197832614183426,0.02284543402493,-0.16144219040870667,-0.03863640874624252,-0.024314017966389656,0.07026858627796173,0.060645490884780884,0.014552905224263668,-0.05853034183382988,0.14688663184642792,0.05526336282491684,0.02789437584578991,-0.060180362313985825,-0.1135280653834343,0.03938614949584007,0.02843426540493965,-0.06531771272420883,0.012708114460110664,-0.016716009005904198,-0.07105769217014313,0.04505389928817749,-0.035695139318704605,0.08711764216423035,0.009640614502131939,-0.0008922590641304851,0.025343500077724457,0.09821899980306625,0.013444289565086365],[-0.11995691806077957,0.03270416706800461,0.11079180985689163,0.03764403611421585,0.039530199021101,0.025509163737297058,0.1162695363163948,-0.0033673541620373726,-0.07099828869104385,-0.18472987413406372,-0.08479724824428558,-0.02652505598962307,0.0639130026102066,-0.03973547741770744,-0.07523027807474136,0.08576042950153351,0.055762507021427155,0.13139498233795166,0.034946128726005554,-0.04814739525318146,-0.037774909287691116,0.024338923394680023,0.14841437339782715,0.05984199047088623,-0.06136935576796532,0.014080637134611607,0.03297482430934906,-0.008374465629458427,0.04571748524904251,0.013538338243961334,0.028957506641745567,0.14462608098983765],[-0.060903213918209076,-0.013238063082098961,0.06782218813896179,0.03490742668509483,0.036290980875492096,-0.03228624165058136,0.1258884221315384,-0.022343633696436882,0.03291652351617813,-0.17038117349147797,0.00702409353107214,-0.030958080664277077,0.13332928717136383,-0.07747869938611984,0.015702834352850914,-0.054049331694841385,-0.008488892577588558,0.06481250375509262,0.09655504673719406,0.05392219498753548,-0.045885197818279266,0.07564360648393631,0.1308339536190033,0.10406191647052765,0.010354678146541119,-0.055338017642498016,0.007103624287992716,-0.04824613034725189,0.12039675563573837,0.0765957459807396,-0.010551327839493752,0.0894009992480278],[0.04086599498987198,0.021328667178750038,-0.07962241023778915,-0.004980361554771662,0.01259785145521164,0.025573691353201866,0.003876197151839733,-0.0171099491417408,-0.019550811499357224,0.03767738118767738,0.026671312749385834,-0.05574817582964897,-0.05150407925248146,0.045519180595874786,0.0765177309513092,0.05295323207974434,-0.0659424439072609,0.016502179205417633,-0.08895804733037949,-0.08424507081508636,-0.033736519515514374,-0.016284240409731865,-0.0700497031211853,0.07012582570314407,-0.07148130238056183,0.02677389606833458,-0.032174158841371536,0.04980579391121864,0.04594990611076355,0.04503375664353371,-0.010623177513480186,-0.031598664820194244],[-0.10486815869808197,0.04031291604042053,0.12108779698610306,0.0037954761646687984,-0.00937843881547451,0.006322754081338644,0.16562551259994507,-0.07618951052427292,0.019876275211572647,-0.17876140773296356,-0.04126971960067749,-0.04243884235620499,0.13204123079776764,-0.07481518387794495,-0.021983863785862923,0.0014165567699819803,0.0402652882039547,0.0892840176820755,0.08561116456985474,0.07536950707435608,0.07320331037044525,-0.018500538542866707,0.10645807534456253,0.03600350394845009,-0.004871762357652187,0.003991967998445034,-0.061647798866033554,-0.006954531650990248,0.03444679453969002,0.0973726138472557,-0.0481797456741333,0.12592758238315582],[0.0773438811302185,0.10508807003498077,-0.06454557925462723,-0.06765902042388916,0.035329993814229965,0.10989368706941605,-0.09771810472011566,0.023866834118962288,0.005911536514759064,0.13913701474666595,0.0333227775990963,0.09543942660093307,-0.02265164442360401,-0.005506096873432398,0.02203368954360485,0.013752182014286518,0.017049230635166168,-0.04951336607336998,0.01089201308786869,0.021024825051426888,-0.01127614825963974,0.033440493047237396,-0.10160195827484131,-0.08896529674530029,0.13031557202339172,0.021532263606786728,-0.014847943559288979,0.033685628324747086,-0.0351455993950367,-0.006469120737165213,0.040239669382572174,-0.08275678753852844],[0.03676605597138405,-0.01898299530148506,0.008571179583668709,0.033392999321222305,-0.04055893421173096,0.08324167877435684,-0.006610623560845852,0.04198538884520531,-0.00783988181501627,-0.05834042280912399,-0.029371503740549088,0.03480641171336174,0.027195222675800323,0.004058738239109516,0.047277435660362244,-0.03319408744573593,0.02224893495440483,-0.0025251649785786867,0.040333252400159836,-0.08557884395122528,-0.05049881339073181,-0.07675795257091522,-0.0339927077293396,-0.07581792771816254,-0.00047711696242913604,0.02488347329199314,-0.09027775377035141,-0.05880162492394447,-0.022764170542359352,-0.04876314476132393,0.03140409290790558,0.00456433417275548],[-0.0968606099486351,-0.023308737203478813,0.12218859046697617,-0.03613442927598953,-0.05146801099181175,-0.06590309739112854,0.17818892002105713,-0.045462846755981445,0.0009928361978381872,-0.05125468596816063,-0.0033731486182659864,0.057302381843328476,0.06947875767946243,-0.10233809798955917,0.06825678050518036,0.07450291514396667,-0.07519538700580597,0.15559065341949463,0.051121801137924194,-0.0025108514819294214,-0.03397452086210251,-0.005062374286353588,0.021065181121230125,0.12541696429252625,-0.036907270550727844,0.011001132428646088,-0.08939643204212189,0.03364977240562439,0.14879806339740753,-0.008440843783318996,0.00661101471632719,0.10474639385938644],[0.14091244339942932,0.08617124706506729,-0.017713485285639763,-0.023800959810614586,0.050539281219244,0.101952463388443,-0.08116639405488968,-0.05905412510037422,0.039229147136211395,0.004636887460947037,0.02808830700814724,0.08120842278003693,-0.11196925491094589,0.0829457938671112,-0.036686208099126816,-0.019803326576948166,-0.022267373278737068,-0.03447682783007622,0.05677653104066849,-4.066069959662855e-05,-0.04970254749059677,-0.055076714605093,-0.09746034443378448,-0.06136944517493248,0.042830273509025574,0.02557753026485443,0.07173360884189606,-0.002742790849879384,-0.10869135707616806,0.026922767981886864,0.05045580863952637,0.0016826161881908774],[0.026039868593215942,-0.010390679351985455,-0.06696189194917679,0.01855994574725628,-0.05976483225822449,0.05194995552301407,0.06543486565351486,0.04467504099011421,0.037809524685144424,-0.1518355756998062,-0.014038056135177612,0.06014160439372063,0.018415207043290138,0.051164913922548294,-0.07077955454587936,0.024061432108283043,-0.028567949309945107,0.03835383430123329,-0.023753104731440544,-0.07321389019489288,0.029158610850572586,0.07736897468566895,0.0969526395201683,0.026347823441028595,-0.03185870870947838,-0.02820427343249321,-0.09385936707258224,0.03977188467979431,0.09752129763364792,0.030497964471578598,-0.07716730982065201,-0.023069394752383232],[-0.0006999606848694384,-0.003878574352711439,-0.057378608733415604,0.06969474256038666,-0.020417368039488792,0.15122923254966736,-0.07395399361848831,-0.034565817564725876,-0.017107296735048294,-0.049804508686065674,0.10809140652418137,0.008540012873709202,-0.1273602396249771,0.12443197518587112,-0.03866849094629288,0.08191992342472076,-0.026299968361854553,-0.03278949484229088,-0.059636060148477554,0.05576307326555252,-0.015723658725619316,0.04688555747270584,-0.053394172340631485,-0.07381764054298401,0.1289079487323761,-0.010643568821251392,-0.0024297116324305534,-0.07277354598045349,-0.08998056501150131,-0.07581064850091934,0.13105212152004242,-0.10522027313709259],[0.11531109362840652,0.006426662672311068,-0.07188622653484344,0.05091577768325806,0.027829822152853012,0.098431296646595,-0.16321918368339539,0.006572903599590063,-0.06531945616006851,0.11723555624485016,0.05643691122531891,0.042039770632982254,-0.045464515686035156,0.06756186485290527,0.035232655704021454,0.029627440497279167,-0.0650428906083107,-0.08481571823358536,0.01734946295619011,0.0880339965224266,0.04259832203388214,0.006908100564032793,-0.01075828354805708,0.0072982036508619785,0.021167103201150894,0.06326140463352203,0.11626499891281128,-0.05464900657534599,-0.10637352615594864,-0.07175035029649734,0.13567854464054108,-0.03178296610713005],[-0.12184500694274902,-0.022391073405742645,0.05198640003800392,0.052075132727622986,0.07010840624570847,0.005665191449224949,0.1759219467639923,0.03425509110093117,-0.02509012445807457,-0.040882520377635956,0.021423745900392532,0.03666960820555687,0.07585231959819794,0.022669237107038498,-0.027764704078435898,-0.006193800363689661,-0.005278848111629486,0.15511302649974823,0.11380025744438171,0.02975105680525303,-0.04026654735207558,0.008606582880020142,0.07919798791408539,0.11370733380317688,-0.0482068732380867,0.03585611656308174,-0.04944954812526703,0.076905757188797,0.09123441576957703,0.1309630572795868,-0.06954804062843323,0.044455636292696],[-0.08923245966434479,0.04245885834097862,0.0048926398158073425,-0.07753312587738037,0.07147327810525894,-0.0796419233083725,0.08721833676099777,0.05052616819739342,0.009175986982882023,-0.18785226345062256,-0.051662564277648926,-0.07637238502502441,0.12841744720935822,-0.09015171229839325,0.02161720208823681,0.08396914601325989,-0.006483427714556456,0.009387117810547352,0.09895262867212296,0.04350621998310089,-0.0063528395257890224,-0.04361295327544212,0.03930869325995445,0.07372922450304031,0.016425127163529396,0.022423962131142616,-0.041214719414711,0.047703906893730164,0.014142797328531742,0.08621898293495178,0.006940823048353195,0.10471633076667786],[-0.07754634320735931,0.07090921700000763,0.0130076939240098,0.054405227303504944,0.016028886660933495,-0.07376730442047119,0.009337070398032665,-0.06522991508245468,-0.052522268146276474,-0.16807468235492706,-0.048422571271657944,0.012265420518815517,0.06086071580648422,-0.06392937153577805,0.026555845513939857,0.05507776513695717,-0.003968979697674513,0.10169772058725357,-0.03569936379790306,0.0356142558157444,-0.0329921580851078,-0.04739838093519211,0.07071420550346375,0.10028983652591705,-0.02266523241996765,0.04314637556672096,0.04699058458209038,0.04903407022356987,0.15692509710788727,0.06838025897741318,-0.05796477571129799,0.14710983633995056],[0.09839434176683426,0.04128854349255562,0.016100365668535233,-0.06223868951201439,-0.0333341509103775,0.08283857256174088,-0.11016616970300674,0.05002924054861069,-0.006395299453288317,0.12949326634407043,-0.020973889157176018,0.11434580385684967,-0.09945695102214813,0.11194751411676407,0.03744228184223175,-0.010339019820094109,0.001873019733466208,-0.10610608756542206,0.07688532024621964,-0.014360697008669376,0.0575609914958477,0.0750788003206253,-0.029606608673930168,-0.03635778650641441,0.08833306282758713,-0.07382620871067047,0.0021396870724856853,-0.11819804459810257,-0.037455808371305466,-0.020270949229598045,-0.016426580026745796,-0.034645017236471176],[-0.0024796088691800833,0.029251430183649063,-0.06435790657997131,-0.02401544526219368,-0.0778764858841896,0.010673288255929947,-0.08576106280088425,-0.07960592955350876,0.056568123400211334,-0.06800834089517593,-0.08032053709030151,-0.04687565565109253,0.01054928358644247,0.008183018304407597,0.03648502007126808,-0.08953451365232468,-0.053896911442279816,-0.03425442427396774,-0.08192586898803711,0.05759274959564209,-0.06973712146282196,0.005553901195526123,-0.022446727380156517,0.055738721042871475,-0.07587321847677231,0.008476236835122108,0.007106752134859562,0.004819768015295267,-0.06422756612300873,0.012671389617025852,-0.05156950280070305,0.03785106539726257],[-0.03298404812812805,-0.011680684983730316,0.009081399999558926,-0.026711903512477875,0.001621273229829967,-0.1096496433019638,0.03868652135133743,0.0767192393541336,-0.0016199267702177167,-0.0824856162071228,-0.019253304228186607,-0.05119943991303444,0.15129846334457397,-0.0969826877117157,0.07233934104442596,0.0840202197432518,-0.04818827658891678,0.041238680481910706,0.09724274277687073,0.030462289229035378,-0.024225851520895958,0.07607819885015488,-0.0020668189972639084,0.11048777401447296,-0.07060787826776505,0.07153133302927017,-0.035940561443567276,0.03644983097910881,0.15605483949184418,0.058388642966747284,0.027159934863448143,0.14696337282657623],[0.08663968741893768,0.07985503226518631,-0.06881515681743622,0.010175800882279873,-0.05222877487540245,0.11559548228979111,-0.06390845775604248,-0.05703238770365715,0.034075792878866196,0.04472848027944565,0.08722627907991409,0.11387030780315399,-0.0992467850446701,0.06999951601028442,-0.00018961296882480383,-0.06530310213565826,-0.03201407566666603,-0.014271331019699574,0.01287791132926941,0.017922310158610344,-0.04439527913928032,0.04500208795070648,-0.11559934914112091,0.012016848661005497,-0.002210453385487199,-0.055431801825761795,-0.00903922226279974,-0.015653952956199646,-0.00803552009165287,-0.009055756963789463,0.027977941557765007,-0.04749871790409088],[0.04142623022198677,0.07015427201986313,0.013507177121937275,-0.05269623547792435,-0.018327459692955017,0.019956571981310844,-0.11176102608442307,-0.07496587932109833,-0.04221295565366745,0.13741567730903625,0.10074662417173386,0.027388064190745354,-0.024715539067983627,0.09273680299520493,0.05770254507660866,0.0412546768784523,0.009628373198211193,-0.059956829994916916,0.06851015985012054,-0.03767814487218857,-0.07313251495361328,0.02466498129069805,-0.08468687534332275,-0.06529456377029419,0.024431275203824043,0.03185837343335152,0.0874067097902298,-0.07678524404764175,-0.11661680787801743,0.006573261693120003,0.060653358697891235,0.01747039705514908],[0.1335683912038803,-0.023961711674928665,-0.014149871654808521,0.08659296482801437,-0.05125386267900467,0.0853295624256134,-0.14878550171852112,0.022466139867901802,-0.010831842198967934,-0.004298950079828501,0.14834566414356232,0.06465663015842438,-0.0561860091984272,0.09648856520652771,0.04243726283311844,0.08899471908807755,0.029409117996692657,-0.032546669244766235,-0.023273495957255363,0.09998547285795212,0.017338354140520096,0.01870039850473404,-0.1265702247619629,-0.00043993955478072166,-0.019706295803189278,-0.024917371571063995,0.013367586769163609,-0.12420058995485306,-0.12685151398181915,-0.10028918832540512,0.05009032040834427,-0.10463349521160126],[-0.005786781664937735,0.007653065491467714,0.006397921126335859,0.07721623033285141,0.04065021127462387,0.015238020569086075,-0.04997687414288521,-0.04020742326974869,0.035614751279354095,0.039258237928152084,0.12397444248199463,0.10131236910820007,-0.05225099250674248,0.005505416076630354,-0.031245285645127296,-0.00250948965549469,-0.018409958109259605,-0.044628266245126724,0.0003605104284361005,-0.032721634954214096,-0.07328898459672928,-0.0667433813214302,-0.08872833847999573,-0.005918859504163265,0.13503380119800568,0.03312160074710846,0.07777269184589386,-0.06365904211997986,-0.09603532403707504,-0.06442337483167648,0.12391065806150436,-0.07072294503450394]],"bias":[-0.007014846429228783,0.031133601441979408,0.010675125755369663,-0.0057699005119502544,0.044218774884939194,-0.012529966421425343,0.02944454364478588,-0.009952573105692863,0.027186792343854904,0.03970442712306976,0.020654739812016487,0.024386096745729446,0.008191932924091816,-0.014022360555827618,0.019890138879418373,0.03319922462105751,-0.021731466054916382,0.023928986862301826,0.03518205136060715,-0.004044235683977604,0.03351656720042229,0.013759952038526535,0.018258964642882347,0.01750703901052475,0.032512493431568146,0.0226593017578125,-0.01555795781314373,0.024899952113628387,0.015294140204787254,0.03444553166627884,0.024066951125860214,0.001145300455391407]},{"weight":[[0.015383511781692505,-0.10611748695373535,0.0815529152750969,-0.0972801148891449,-0.09406714141368866,0.00686125922948122,0.07374092936515808,0.008195588365197182,0.0887237936258316,0.10113232582807541,0.06788668036460876,-0.10738305002450943,-0.08587279170751572,0.007319638039916754,-0.0906512513756752,0.07450920343399048,0.0021812967024743557,-0.0932086929678917,0.08198404312133789,-0.051135145127773285,0.10668733716011047,0.0917336642742157,-0.09755578637123108,-0.08169075846672058,-0.09231407195329666,0.0776023268699646,-0.005010935012251139,-0.10519620776176453,0.06031833216547966,0.07521512359380722,0.10019972175359726,0.07614810764789581]],"bias":[0.00420112069696188]}]}