{"name":"frontier-selfplay-value","version":1,"metadata":{"algorithm":"monte-carlo-afterstate-value","trained_episodes":43,"hand":"K1Q1R2B2N2P8SH0SN0JP0","seed":67194,"stats":{"w":22,"b":13,"draw":7}},"layers":[{"weight":[[-0.06597097963094711,0.011986041441559792,0.04367416352033615,0.07322552055120468,-0.020199522376060486,-0.010812947526574135,-0.0785553976893425,0.07823885977268219,-0.03130997717380524,-0.05677624046802521,0.03531204164028168,0.06821144372224808,0.02223208174109459,-0.0054010385647416115,-0.05952952802181244,-0.010778848081827164,0.07846005260944366,-0.06664195656776428,-0.004097098018974066,-0.03283950313925743,-0.06339584290981293,-0.04726189002394676,-0.07805290818214417,0.008345583453774452,0.07196320593357086,-0.039953719824552536,0.01894281804561615,0.049566470086574554,0.03772137314081192,0.05699533969163895,0.05018925294280052,-0.06057529151439667,0.02572188712656498,0.0674605518579483,0.03081703744828701,-0.07666122168302536,0.030168766155838966,0.06514604389667511,0.060999151319265366,-0.039859313517808914],[0.04393572732806206,0.06121201068162918,0.027523234486579895,0.051319222897291183,-0.03025512397289276,-0.06694786995649338,0.017463363707065582,-0.06972971558570862,-0.05452101677656174,-0.06449531018733978,-0.06300368905067444,0.05863070487976074,0.016792193055152893,-0.02495724894106388,0.06691412627696991,0.052780523896217346,0.07530275732278824,-0.015236767940223217,-0.01787525601685047,-0.04477998614311218,0.012200716882944107,-0.04904855787754059,0.06560196727514267,-0.08607690036296844,-0.005635562352836132,-0.007761387620121241,-0.03398265317082405,-0.003561629680916667,-0.009274567477405071,0.0015579659957438707,0.05983824282884598,0.06948362290859222,-0.047650858759880066,0.07180579751729965,0.030220728367567062,0.04163675755262375,-0.025052392855286598,0.07913342118263245,-0.023270851001143456,-0.050849799066782],[0.04593180492520332,0.007645795587450266,-0.014381827786564827,-0.0571112185716629,0.0059629520401358604,-0.052011776715517044,0.039546240121126175,0.039546575397253036,0.05452209338545799,-0.02576971799135208,-0.030090782791376114,0.027500968426465988,-0.06204009801149368,-0.034008171409368515,0.0355549082159996,0.005475799553096294,-0.055531710386276245,0.013381746597588062,0.029352795332670212,-0.04896656051278114,0.047003816813230515,0.054085131734609604,0.02818223088979721,-0.0322507880628109,-0.04598647356033325,0.03174765035510063,0.035903602838516235,-0.03452515974640846,-0.0020885199774056673,0.02259867638349533,0.07315202057361603,0.06119959056377411,-0.00888261292129755,-0.05750404670834541,-0.010582076385617256,-0.0025056852027773857,-0.01869683526456356,-0.023101547732949257,0.04331853240728378,-0.027628177776932716],[0.03179069608449936,-0.04055444523692131,-0.059184640645980835,0.03670395538210869,-0.007205908186733723,-0.05220037326216698,0.0010208247695118189,0.056652605533599854,-0.05521363765001297,-0.015569159761071205,0.039050713181495667,-0.012399443425238132,-0.01832396909594536,-0.05364139378070831,-0.023213207721710205,0.06820353865623474,0.013219342567026615,0.01963215135037899,0.05745193734765053,-0.023158352822065353,-0.00025964915403164923,0.022587615996599197,0.029950231313705444,0.05701731890439987,-0.056688468903303146,-0.047616906464099884,-0.037837520241737366,0.017428701743483543,0.0794961228966713,-0.05836612731218338,-0.05229540914297104,-0.06414402276277542,0.03132351487874985,-0.03649066016077995,0.07528027147054672,0.028355415910482407,-0.06852199137210846,-0.04644777998328209,0.00926620326936245,-0.024188708513975143],[0.03232152760028839,-0.068337082862854,0.0026219396386295557,0.004294553305953741,-0.024285869672894478,0.0060007767751812935,0.0019882372580468655,0.0335489958524704,0.06623638421297073,0.007075637578964233,0.023232655599713326,-0.016919024288654327,0.044625766575336456,0.02017645165324211,-0.03027835488319397,-0.022535836324095726,-0.06237734854221344,-0.06378984451293945,-0.03612014278769493,0.010351421311497688,0.04885172098875046,-0.032070811837911606,-0.028439095243811607,-0.07420473545789719,-0.04475373402237892,-0.05030808970332146,0.016632460057735443,0.009014439769089222,0.0034321853891015053,-0.06439235061407089,-0.0244077667593956,-0.042436469346284866,-0.06398914754390717,-0.04836507514119148,-0.02461211197078228,0.003988992422819138,0.034676529467105865,0.013364162296056747,0.038015589118003845,-0.013066340237855911],[-0.05133548751473427,-0.004244962241500616,-0.0055495137348771095,0.07011426985263824,0.012318268418312073,0.06699763983488083,0.06424899399280548,0.018942197784781456,0.04529264569282532,-0.00795387290418148,-0.07273709774017334,0.03375580161809921,-0.06850256025791168,-0.058252327144145966,0.06613392382860184,0.00829242542386055,0.05639876052737236,0.05141061171889305,0.037521932274103165,0.06463196873664856,0.004233406390994787,0.06196976453065872,-0.06880377233028412,0.01781531609594822,-0.06341593712568283,-0.03776346519589424,0.047533515840768814,-0.07965505123138428,-0.0033556632697582245,0.005074773915112019,-0.07873823493719101,-0.05381211265921593,0.06496768444776535,-0.01166396401822567,0.05744205415248871,-0.05702786147594452,0.04729429632425308,0.046913474798202515,0.036384209990501404,-0.03867083042860031],[-0.01763434335589409,-0.0018577261362224817,0.026810381561517715,-0.08456782251596451,-0.0005620294250547886,0.015221481211483479,0.07296457886695862,-0.009848575107753277,0.04353848099708557,-0.03100874088704586,0.06925999373197556,0.02627236396074295,0.0459246002137661,0.03626487776637077,0.002243966329842806,0.008731498382985592,-0.039410822093486786,0.03348042443394661,-0.049086954444646835,-0.0017710346728563309,0.05737121030688286,-0.014896959997713566,0.013661667704582214,0.07208269089460373,-0.026613131165504456,-0.02176135592162609,-0.025635873898863792,0.04484124109148979,-0.022089840844273567,-0.04772712290287018,0.05851513892412186,-0.06528684496879578,-0.03676370158791542,0.06804119050502777,0.012849291786551476,-0.06115316227078438,0.04093354567885399,-0.05843991041183472,-0.007026846520602703,0.07147354632616043],[-0.045183323323726654,0.014487025327980518,-0.03821403160691261,-0.03475918620824814,0.04832887277007103,-0.07668138295412064,-0.007656048983335495,0.05983688682317734,-0.07462180405855179,-0.062178611755371094,0.0019603234250098467,-0.00114728813059628,0.0368339903652668,-0.010725448839366436,0.01286283228546381,-0.07546833902597427,0.07164144515991211,-0.02837400697171688,-0.050875693559646606,-0.03350168839097023,-0.04859672114253044,0.00912078469991684,0.006696534808725119,-0.030918918550014496,0.04876347631216049,-0.0353400781750679,0.07614923268556595,-0.04274105653166771,-0.058782078325748444,0.027151914313435555,-0.009927262552082539,-0.07687350362539291,-0.06023293361067772,0.059214964509010315,-0.05217597261071205,0.06938361376523972,-0.06916362792253494,-0.052130863070487976,0.0672023743391037,-0.054682407528162],[0.027818776667118073,0.04149452969431877,0.059675876051187515,-0.08169035613536835,0.008207316510379314,0.03891874477267265,-0.005461378023028374,-0.03395751118659973,0.021036984398961067,-0.04840144142508507,0.030332960188388824,-0.04953598976135254,0.013903116807341576,0.05227610096335411,-0.06657834351062775,-0.07853814214468002,-0.025671377778053284,-0.0019704776350408792,-0.0620628297328949,-0.04008744657039642,0.02065438963472843,-0.01110012736171484,-0.08186442404985428,-0.011957673355937004,0.006525444332510233,-0.0070730880834162235,0.0708877369761467,-0.024055657908320427,-0.07861042022705078,-0.03829389065504074,0.06811750680208206,-0.0777478814125061,-0.03764795511960983,-0.08143921196460724,-0.021921297535300255,-0.019388863816857338,0.010409952141344547,-0.028676627203822136,-0.010831623338162899,0.007522902451455593],[0.07209832966327667,-0.03718387708067894,0.08578204363584518,0.01987919583916664,-0.033191174268722534,0.024550626054406166,0.05651174113154411,-0.05446029081940651,0.030180947855114937,0.059984538704156876,-0.05054393410682678,-0.027940774336457253,-0.06149129942059517,0.0036392761394381523,-0.007624957710504532,0.017443614080548286,0.025788184255361557,0.07138512283563614,-0.07250701636075974,0.008217951282858849,0.025029534474015236,0.016814997419714928,0.038454752415418625,-0.0034528695978224277,-0.04938109964132309,-0.03907390683889389,-0.014854397624731064,-0.03627278283238411,0.03683339059352875,-0.00846523605287075,-0.03568417951464653,-0.08631103485822678,-0.043189533054828644,-0.09000682085752487,-0.09023702144622803,0.02684975229203701,0.06469257175922394,-0.00830247811973095,-0.031839050352573395,0.062324408441782],[0.002387822838500142,0.07077041268348694,-0.041100554168224335,0.08957710862159729,0.01394305657595396,0.030329320579767227,0.019057871773838997,0.04105883464217186,0.0531662292778492,-0.05900135263800621,-0.05717356130480766,0.033886171877384186,-0.0588255450129509,0.003260240890085697,-0.01462646946310997,0.07738802582025528,-0.004620507825165987,-0.012589883990585804,0.07472632080316544,-0.026173526421189308,0.0013676167000085115,0.06915821880102158,0.06621157377958298,-0.048745863139629364,0.059890247881412506,-0.07138688117265701,0.08185132592916489,-0.06168864294886589,-0.017772391438484192,0.023702004924416542,-0.062192294746637344,-0.020708216354250908,0.05167883634567261,0.06578604131937027,0.054742634296417236,0.040715254843235016,-0.05724748224020004,-0.0008402336970902979,0.05394834652543068,0.020603114739060402],[0.02123960852622986,-0.01936955563724041,0.03427065163850784,0.058680176734924316,0.04212051257491112,-0.03625591844320297,0.011029517278075218,0.007781855762004852,0.009142269380390644,0.0222329068928957,-0.07469582557678223,0.0502210296690464,-0.006200338713824749,0.0837821513414383,-0.06658562272787094,-0.05331077054142952,0.0018717861967161298,0.06526918709278107,0.0864650160074234,-0.0434248223900795,0.01848096027970314,-0.03348343074321747,0.07983706891536713,0.05527127534151077,0.055390920490026474,0.05119266360998154,-0.01976185105741024,0.00038119428791105747,0.05667046830058098,-0.014007226563990116,0.06748347729444504,0.07394915819168091,-0.003904117038473487,-0.0301054697483778,0.053763218224048615,0.07981600612401962,-0.06946014612913132,0.0005818919162265956,0.02545708604156971,-0.009321555495262146],[0.015772590413689613,-0.08820401132106781,0.023352794349193573,0.005825410597026348,-0.07305470108985901,0.035897016525268555,0.03513732925057411,-0.03781668096780777,-0.007741456851363182,0.04352588951587677,0.054214801639318466,0.06427698582410812,0.03887641429901123,0.0029899885412305593,-0.08022525161504745,0.06885354220867157,0.053893834352493286,-0.05870563164353371,-0.036986008286476135,0.013721953146159649,0.03749147057533264,0.05153834819793701,-0.0036888967733830214,0.024541711434721947,0.0782867819070816,0.06273193657398224,0.002577151171863079,0.06833074241876602,-0.021366823464632034,-0.04648035392165184,0.009660529904067516,0.026706602424383163,0.053176410496234894,0.006984070874750614,0.010161464102566242,0.08020202815532684,0.023996446281671524,0.05181508883833885,-0.07263225317001343,-0.07355580478906631],[-0.06634660810232162,-0.05682918801903725,0.05175502225756645,-0.01512167602777481,0.06356921792030334,0.028245994821190834,-0.009212044067680836,0.06508935987949371,0.033543411642313004,-0.0453835055232048,-0.08643919974565506,-0.07169368118047714,0.020576179027557373,-0.03693648427724838,-0.06027961149811745,-0.06907147169113159,-0.005455856677144766,0.02088843286037445,0.06686073541641235,-0.014917773194611073,-0.02985580451786518,0.05875629559159279,-0.019600244238972664,-0.04423951357603073,-0.025034671649336815,-0.0409211590886116,0.021791787818074226,0.007157833781093359,0.026727160438895226,-0.018707819283008575,-0.07768114656209946,0.048671118915081024,-0.007313393522053957,0.03694530576467514,0.014591659419238567,0.04869654402136803,-0.027941197156906128,-0.08697163313627243,0.05240464583039284,-0.04535331949591637],[-0.08285041153430939,0.030647486448287964,-0.013012172654271126,0.06289206445217133,-0.03429233655333519,-0.01697440631687641,0.005170363467186689,-0.07726043462753296,0.051578350365161896,0.05787203833460808,-0.06879688054323196,-0.059307076036930084,-0.022356513887643814,0.07329243421554565,0.03491908311843872,-0.034646619111299515,0.07143762707710266,-0.02906842529773712,-0.009856312535703182,-0.026661770418286324,0.02646808698773384,0.042717345058918,-0.06377904862165451,-0.0073814052157104015,-0.03935634717345238,0.07395051419734955,-0.013926869258284569,0.003883675904944539,-0.054258838295936584,-0.024103613570332527,-0.07682444900274277,0.034553296864032745,0.039680395275354385,-0.06525096297264099,0.03677542135119438,0.05809447914361954,-0.03728877753019333,-0.07467318326234818,-0.014224390499293804,-0.03389924392104149],[-0.004709458909928799,0.011310613714158535,0.03856545314192772,0.021238932386040688,-0.0429728664457798,0.07604458183050156,-0.05693376809358597,-0.06320079416036606,0.07557616382837296,0.00988962035626173,0.04608498513698578,-0.03793589025735855,-0.04988788813352585,0.060643769800662994,0.05552828311920166,-0.0017946388106793165,-0.0653412789106369,0.06951860338449478,-0.06868135184049606,-0.04985760897397995,-0.018720777705311775,-0.01892750710248947,0.027980780228972435,-0.008348521776497364,0.06634894758462906,0.04386095330119133,0.040209218859672546,0.011648541316390038,0.028474166989326477,0.07056860625743866,0.0653119683265686,-0.026934394612908363,0.05661466717720032,-0.0243324413895607,0.02733900398015976,0.07276453822851181,0.06677915900945663,-0.04760439693927765,0.06671912223100662,-0.018007246777415276],[-0.051828838884830475,-0.07211761921644211,-0.04380778595805168,-0.012195615097880363,0.07804819196462631,-0.0627535730600357,0.06888800859451294,0.004544789902865887,-0.05204852297902107,-0.024145787581801414,-0.002082018880173564,-0.0249418243765831,-0.07468574494123459,0.04027603194117546,0.021374111995100975,0.03853727504611015,-0.06935632228851318,0.0660049244761467,-0.006382393185049295,-0.04258966073393822,-0.02429170161485672,-0.06709840148687363,0.006509977392852306,0.07211338728666306,-0.06579313427209854,0.03575414791703224,0.055096305906772614,0.03004014492034912,-0.04126349836587906,-0.061780817806720734,-0.03492427617311478,-0.04598206654191017,-0.07513237744569778,0.0055618747137486935,0.03732098639011383,0.01186937652528286,-0.07132307440042496,-0.05906382203102112,0.03947987034916878,-0.001287186169065535],[-0.060030341148376465,-0.034879982471466064,0.06545596569776535,0.06646476686000824,0.012199502438306808,-0.07327477633953094,0.06972835958003998,0.05426199734210968,0.05006123706698418,-0.00813894160091877,-0.0026968964375555515,0.05201873555779457,0.06197343021631241,0.04452277719974518,0.028495928272604942,0.023304680362343788,0.030583003535866737,-0.05637351796030998,-0.055303674191236496,0.05325634777545929,0.050822723656892776,0.05611856281757355,0.05432050675153732,0.06459879875183105,0.041137147694826126,-0.005166828166693449,0.0388442762196064,-0.04284742474555969,0.016259904950857162,0.057742223143577576,0.037518225610256195,0.00893324613571167,-0.028521060943603516,0.03871924430131912,-0.0513315312564373,0.0018734512850642204,0.06503847241401672,0.050145894289016724,0.06272037327289581,0.049168266355991364],[-0.05054830387234688,-0.07694415748119354,0.06816479563713074,0.011960080824792385,0.051727473735809326,-0.05381612852215767,-0.06368914991617203,0.028695976361632347,0.06345341354608536,0.028520796447992325,0.016370108351111412,0.016125189140439034,-0.0035859427880495787,-0.04362101852893829,-0.0874108299612999,-0.016056513413786888,-0.045663170516490936,0.03642283380031586,-0.010266486555337906,0.0014465766726061702,-0.02842037007212639,0.027524491772055626,-0.06523802131414413,0.005933798849582672,-0.02669113501906395,0.07403849810361862,-0.04355202615261078,0.05056590586900711,0.020856278017163277,-0.01054534874856472,-0.050941940397024155,0.06395316123962402,0.0624781958758831,0.027825821191072464,-0.025225510820746422,-0.05287859961390495,0.042220067232847214,0.059398580342531204,0.02171088010072708,0.05603877082467079],[-0.04613243043422699,0.0428834930062294,0.041882116347551346,0.08311144262552261,0.07421120256185532,0.04392344877123833,-0.02988477796316147,0.07361871749162674,-0.0690566897392273,-0.027868693694472313,-0.05829276144504547,-0.00035850272979587317,-0.05398121103644371,-0.033888086676597595,0.0697278380393982,0.056556202471256256,-0.029803788289427757,-0.05523478612303734,-0.03547566384077072,0.025134500116109848,0.04058447852730751,-0.05316908657550812,0.022391309961676598,0.01749606803059578,-0.04870745539665222,-0.07728169113397598,0.05666343867778778,0.04025466367602348,-0.03800134360790253,0.011767853982746601,-0.0710732564330101,-0.07100065052509308,0.04877760633826256,0.019654298201203346,-0.01839638128876686,-0.026882531121373177,0.059098437428474426,0.051778778433799744,-0.0577198788523674,-0.0029117055237293243],[0.07822524011135101,-0.03927887603640556,-0.0340116024017334,0.03600692003965378,-0.016530195251107216,-0.030961085110902786,-0.06638599932193756,-0.06908471882343292,-0.06935056298971176,0.062475383281707764,-0.031061291694641113,0.03422289341688156,0.053184252232313156,-0.06264667212963104,0.02720191329717636,0.042886871844530106,0.07717080414295197,0.03495055437088013,-0.08273355662822723,-0.04958254098892212,0.0678209513425827,0.03561388701200485,-0.030303677543997765,0.06657780706882477,-0.06651771068572998,0.028788337484002113,-0.06198985129594803,-0.019233256578445435,-0.040892768651247025,-0.01552753895521164,-0.08588244020938873,0.013270078226923943,-0.054616961628198624,0.0697854682803154,0.0055486587807536125,-0.006623188033699989,0.025674764066934586,-0.028521522879600525,-0.008742589503526688,0.01436755619943142],[-0.015256738290190697,-0.0329691506922245,0.052840426564216614,-0.07023786753416061,0.010191286914050579,-0.05194436013698578,0.05688512325286865,0.06572308391332626,0.0026367707177996635,-0.011054408736526966,-0.04691176116466522,0.0483207069337368,-0.009777635335922241,0.03613470867276192,0.05304057151079178,-0.004403408616781235,-0.01419539749622345,0.06959286332130432,-0.07312644273042679,-0.003938381560146809,-0.041974056512117386,0.04824239760637283,-0.07164055109024048,-0.01909848116338253,0.06417670845985413,-0.03670845553278923,-0.035034678876399994,0.043562911450862885,-0.03000062331557274,-0.02895197831094265,-0.032177895307540894,-0.019299425184726715,-0.07661226391792297,-0.04415511339902878,-0.05395068600773811,-0.04504737630486488,0.0020331793930381536,0.020523762330412865,0.07472565770149231,0.03729623556137085],[0.046619199216365814,-0.06892258673906326,0.04366901516914368,0.01207435317337513,0.044558148831129074,-0.01268122810870409,-0.026508724316954613,-0.024336209520697594,0.02237905189394951,-0.0054252552799880505,0.006404931657016277,-0.019879456609487534,0.04694665968418121,0.07610970735549927,-0.03773537650704384,-0.0323178805410862,-0.009229976683855057,0.07306919991970062,-0.049395713955163956,0.06000880151987076,-0.06946808844804764,0.04905238002538681,0.036338068544864655,0.060148775577545166,0.052928537130355835,-0.053815387189388275,0.07749026268720627,-0.04047546535730362,-0.08116943389177322,-0.01782652921974659,-0.040268346667289734,0.06898174434900284,-0.07420069724321365,0.057657793164253235,0.04030241072177887,0.0006122753256931901,0.041270188987255096,0.012096389196813107,-0.03066815622150898,-0.032005224376916885],[0.013207720592617989,-0.037717483937740326,0.04509401321411133,-0.04490753635764122,-0.008133571594953537,0.08564925938844681,-0.043579649180173874,-0.009018192067742348,0.001348237507045269,0.006867885589599609,0.04792854189872742,0.047357987612485886,0.05480550602078438,-0.00796775333583355,-0.036621756851673126,0.07146240025758743,0.05610697343945503,0.04164445772767067,-0.027287736535072327,-0.01854354329407215,-0.027919888496398926,-0.053560446947813034,-0.012582986615598202,0.06511852890253067,0.01827683299779892,0.0008019554661586881,0.03731980174779892,-0.024403179064393044,0.019089331850409508,-0.021377814933657646,-0.0642310380935669,0.0766807347536087,0.03278245031833649,-0.016208728775382042,-0.010026002302765846,0.01692183129489422,-0.04913274943828583,0.07505761086940765,0.0666659027338028,-0.00898156687617302],[0.02505521848797798,0.011600518599152565,-0.08304361253976822,0.015704866498708725,-0.004247845150530338,-0.0555151030421257,-0.06032674387097359,-0.007092901971191168,0.041812457144260406,0.07809870690107346,-0.016347073018550873,0.03017311356961727,0.002643840154632926,-0.0226022619754076,-0.008321218192577362,-0.06537004560232162,0.008825693279504776,-0.008994828909635544,0.007469651289284229,0.0634695291519165,-0.0804767832159996,0.025696197524666786,-0.06784364581108093,-0.03462468832731247,0.04828372225165367,-0.03432120382785797,0.04937835410237312,0.020616527646780014,0.07786507904529572,-0.034009501338005066,-0.06772254407405853,-0.020672377198934555,-0.0039693210273981094,0.010019928216934204,0.0743120014667511,0.05848819017410278,0.019565783441066742,0.055288150906562805,-0.007481724489480257,0.035379283130168915],[0.06143267825245857,0.04215070977807045,-0.0007444480434060097,-0.057707250118255615,0.013439573347568512,0.03757840022444725,0.005487734917551279,0.07402212917804718,-0.05538352578878403,0.014366990886628628,0.019224779680371284,-0.06737957149744034,0.011511923745274544,0.03539217263460159,-0.05231785029172897,-0.0016568668652325869,-0.060810815542936325,-0.013661088421940804,-0.023898957297205925,0.04870540648698807,0.02274579368531704,0.07530637085437775,-0.0695388913154602,0.06615367531776428,-0.04312749207019806,-0.051417432725429535,-0.04324708506464958,0.06288910657167435,0.06597442924976349,0.06117788702249527,0.009820358827710152,0.04706188291311264,-0.02861001156270504,-0.029403667896986008,0.013022363185882568,0.03304743021726608,0.01657785102725029,-0.058098383247852325,0.04231134057044983,-0.007468071300536394],[0.01730136014521122,0.08514057844877243,0.06327636539936066,-0.017206598073244095,-0.04468343034386635,-0.08653470128774643,0.019317105412483215,0.056394629180431366,-0.07119041681289673,-0.02906022034585476,-0.001660152687691152,-0.040061820298433304,0.04265473037958145,0.04127855226397514,-0.019764233380556107,0.07215084880590439,0.060640715062618256,-0.036905594170093536,-0.028791312128305435,-0.02894473820924759,-0.010649546980857849,-0.07239818572998047,0.020428087562322617,-0.031375449150800705,0.056500568985939026,0.06442727148532867,-0.026258131489157677,0.06831659376621246,-0.0598921924829483,-0.04047732055187225,0.048015348613262177,0.04032239690423012,0.016366446390748024,0.03766925260424614,0.0668853297829628,-0.08568403869867325,-0.0694027990102768,0.010436790063977242,-0.05555696785449982,0.01618240773677826],[0.011007143184542656,0.06725054979324341,-0.06767426431179047,-0.07923003286123276,0.05237189680337906,-0.06688366085290909,-0.05211907625198364,0.04261180758476257,0.031428027898073196,-0.01343244407325983,0.06452364474534988,-0.05982840433716774,0.0686061903834343,0.07977075129747391,0.03888605162501335,-0.03831895440816879,0.02432548813521862,0.042628269642591476,-0.04241298884153366,-0.06110446900129318,-0.03311872482299805,-0.054396193474531174,-0.06286586076021194,0.050960149616003036,-0.0031091582495719194,0.06744038313627243,-0.04697170853614807,-0.02166692540049553,-0.020846208557486534,-0.0669427290558815,0.05483603477478027,-0.018266873434185982,-0.06341071426868439,-0.07680877298116684,-0.03437197208404541,0.04246704280376434,-0.06336835026741028,-0.004947325214743614,0.05639595165848732,0.03969048336148262],[0.03304352983832359,-0.033733732998371124,0.05659536272287369,-0.048433344811201096,0.056683383882045746,0.04799741506576538,-0.04711739718914032,0.07638904452323914,-0.055106863379478455,0.05870765447616577,0.03528149053454399,-0.026593495160341263,0.0010000128531828523,0.030429894104599953,0.0404159240424633,0.006336966995149851,-0.06545877456665039,0.061558082699775696,-0.0149723244830966,-0.053733374923467636,0.0009498547296971083,-0.07263023406267166,0.017438014969229698,-0.015193830244243145,-0.06977000087499619,-0.02078186720609665,-0.027506578713655472,0.05713959410786629,-0.029041217640042305,-0.034707821905612946,-0.06823848187923431,-0.04679292067885399,0.025536444038152695,0.029595959931612015,0.06010689586400986,0.005602182354778051,-0.06322337687015533,0.05072156712412834,-0.06148727238178253,-0.008498113602399826],[0.06869551539421082,0.06862760335206985,-0.08480224758386612,0.02584219165146351,0.025708474218845367,-0.031817592680454254,-0.020615877583622932,0.06187329441308975,0.011726477183401585,-0.0332462415099144,0.014566577039659023,0.00711763696745038,-0.0406670868396759,0.016136527061462402,-0.005355687811970711,0.07421212643384933,-0.018836354836821556,-0.07244418561458588,0.07340958714485168,0.08203406631946564,0.07057429105043411,0.049178797751665115,0.08171908557415009,-0.03342197835445404,-0.01653544418513775,-0.05593293532729149,-0.06973960250616074,-0.024211015552282333,-0.0801679864525795,-0.06829196214675903,0.026448430493474007,-0.03175576403737068,0.048900432884693146,-0.006454175803810358,0.01959204487502575,0.01920475997030735,-0.03689633309841156,0.0315898135304451,0.06432189792394638,-0.05467213690280914],[0.06969327479600906,0.040891218930482864,0.06419841945171356,-0.03256768360733986,-0.013176980428397655,-0.0029203370213508606,0.01010284572839737,-0.014347542077302933,-0.03622022643685341,-0.02612878568470478,0.040840521454811096,0.02127401903271675,-0.05464891716837883,0.07252531498670578,-0.04015546292066574,-0.023593712598085403,-0.04461156949400902,0.008278033696115017,-0.003907756879925728,-0.04882339388132095,-0.060591548681259155,-0.06226806715130806,-0.04835682734847069,-0.05200391635298729,-0.046791937202215195,-0.004307114984840155,0.06588355451822281,-0.05587087571620941,0.07618851214647293,0.04970511794090271,0.07204560190439224,0.015551017597317696,-0.014020302332937717,-0.013571688905358315,0.057243116199970245,0.04732176288962364,-0.06507324427366257,0.08199397474527359,-0.07830191403627396,0.047251343727111816],[-0.07682282477617264,-0.07104696333408356,0.028619319200515747,-0.08046718686819077,0.07685639709234238,-0.025244759395718575,-0.009939124807715416,0.03683071583509445,0.05283932760357857,0.005883865989744663,-0.019249003380537033,0.02467065304517746,0.053319286555051804,-0.06811012327671051,-0.025931119918823242,0.024862205609679222,0.015830090269446373,-0.07137465476989746,-0.021681929007172585,0.015890225768089294,0.022190622985363007,-0.021974563598632812,-0.04030483216047287,0.08204755932092667,-0.02949426881968975,-0.07764091342687607,0.02929881028831005,0.032984524965286255,0.010147228837013245,0.01572166010737419,0.07557729631662369,0.002501310780644417,0.06935108453035355,-0.030291691422462463,-0.05271833762526512,-0.058898501098155975,0.008307501673698425,0.04544014111161232,-0.0017049160087481141,0.0005989546189084649]],"bias":[-0.004283837042748928,0.005656163673847914,-0.0034793210215866566,0.0,0.0,-0.001801145146600902,0.00967369507998228,0.0,-0.00891817081719637,-0.011014445684850216,-0.00048379466170445085,0.008623044937849045,0.005766347050666809,-0.007671539206057787,-0.006572943180799484,-0.002737961243838072,0.0,0.006264368537813425,-0.004971757065504789,0.005572403781116009,-0.009534403681755066,0.0,-0.004456896334886551,0.010546181350946426,0.0010293804807588458,-0.007143697701394558,-0.008102288469672203,-0.0002570606884546578,0.007128320634365082,0.0005538364639505744,0.0075949374586343765,0.00903761014342308]},{"weight":[[0.06870162487030029,-0.07685476541519165,-0.010884835384786129,-0.0587974414229393,0.05201193317770958,0.07374591380357742,-0.0223722942173481,-0.07168992608785629,-0.008888033218681812,0.05592203140258789,-0.0367404967546463,-0.06955556571483612,-0.06539057195186615,-0.012088226154446602,0.046153295785188675,-0.03692837059497833,-0.06935933232307434,0.02163151651620865,0.03898005560040474,-0.031012246385216713,0.018438266590237617,-0.04842425510287285,0.037952885031700134,-0.07149284332990646,-0.07417809218168259,-0.02442554011940956,-0.016696488484740257,0.06620500236749649,-0.0100620212033391,0.03873712942004204,-0.07635572552680969,-0.03955285996198654],[-0.017611414194107056,-0.03168198838829994,0.04341674596071243,-0.07158082723617554,0.02764507383108139,0.06132904067635536,-0.0344221293926239,-0.03164291009306908,-0.05731724575161934,-0.02455173246562481,0.007035695016384125,0.019460462033748627,0.07921753078699112,-0.028098642826080322,0.022312695160508156,-0.015712043270468712,-0.004762193188071251,0.037737879902124405,0.019684096798300743,-0.027103183791041374,0.06505567580461502,-0.04179860278964043,0.0857330784201622,-0.014407738111913204,0.014478151686489582,-0.03614325821399689,-0.06839122623205185,0.017654919996857643,-0.05013864114880562,0.0724884420633316,-0.02082829549908638,0.08596283197402954],[0.02654244937002659,0.06549986451864243,-0.010530984029173851,-0.019208060577511787,0.017372334375977516,-0.015554763376712799,-0.04073169827461243,0.06899664551019669,-0.04937226325273514,0.06254075467586517,0.031597454100847244,-0.03894376382231712,0.04539751634001732,-0.07020218670368195,-0.06714100390672684,0.051208093762397766,0.0027911632787436247,0.021397748962044716,0.0028962232172489166,0.052460864186286926,0.017026351764798164,-0.046899743378162384,0.015625301748514175,-0.011728068813681602,-0.00017435743939131498,-0.06692954152822495,0.017627988010644913,-0.07698330283164978,-0.08721640706062317,0.036971598863601685,-0.03159471973776817,-0.09101956337690353],[0.06364481896162033,0.0009220385691151023,-0.02354109100997448,-0.06179899349808693,-0.058419760316610336,-0.029754893854260445,-0.007355195470154285,0.06772913038730621,-0.05166321247816086,-0.07092765718698502,0.05733069032430649,0.0628993809223175,0.06651901453733444,0.07551592588424683,0.050298288464546204,0.03836272656917572,-0.012118698097765446,-0.021011989563703537,-0.012605839408934116,0.03985332325100899,0.08334507793188095,0.060848187655210495,0.012860160320997238,0.04579987749457359,-0.020069152116775513,-0.030334142968058586,-0.0837850570678711,-0.06569961458444595,0.05015669763088226,0.053983062505722046,0.013696398586034775,-0.07255549728870392],[-0.07966966181993484,0.006915184203535318,0.06674622744321823,-0.07705970108509064,-0.03693905472755432,-0.03796173632144928,0.02535242773592472,-0.05733434483408928,-0.01911015436053276,-0.020485006272792816,-0.006281860638409853,0.003396867774426937,-0.06820781528949738,-0.01986171118915081,0.06563365459442139,-0.07802927494049072,0.047754671424627304,0.028518615290522575,-0.013217005878686905,0.026814362034201622,-0.07885556668043137,0.012157601304352283,0.0694044977426529,-0.05421694368124008,-0.016046157106757164,0.07058539986610413,-0.05689790099859238,0.04324216768145561,-0.001926188706420362,-0.0662473738193512,-0.026191281154751778,-0.032783087342977524],[-0.07691081613302231,-0.03414175286889076,0.018702739849686623,0.041247401386499405,0.04978146031498909,0.06793589890003204,-0.05304946377873421,-0.004329086747020483,-0.04249519482254982,0.034762002527713776,0.05415862053632736,-0.036110348999500275,-0.01149399671703577,-0.061197154223918915,0.05032971128821373,0.07866951078176498,0.03175022453069687,-0.06894326955080032,0.029382701963186264,0.010339751839637756,0.03498546779155731,0.014982644468545914,0.008334431797266006,0.07795991748571396,-0.050364427268505096,-0.06290245056152344,-0.051277872174978256,-0.03553302213549614,0.030098890885710716,0.040408939123153687,0.060101013630628586,-0.07317103445529938],[-0.06590717285871506,0.01562423538416624,-0.012883927673101425,0.03122055158019066,-0.0665210634469986,0.007808777503669262,0.02154652215540409,0.048505768179893494,0.02694944106042385,0.03638240694999695,0.05856265872716904,0.016852673143148422,-0.07541289925575256,0.022523734718561172,0.06275767087936401,-0.006392246577888727,0.007056902162730694,-0.06306062638759613,-0.029582927003502846,0.07989803701639175,0.023594602942466736,0.05199538543820381,-0.038670118898153305,-0.0739339292049408,0.0264400914311409,-0.011680051684379578,0.06326398253440857,0.04705701768398285,0.07450491189956665,-0.06600699573755264,0.0828547477722168,0.0497489869594574],[-0.030227694660425186,-0.048268821090459824,0.0021698917262256145,-0.044715363532304764,0.047982435673475266,-0.0680856704711914,0.010824022814631462,0.025041669607162476,0.049802567809820175,0.05988818407058716,-0.011705112643539906,-0.07107336074113846,0.026363592594861984,0.06612929701805115,0.002590846037492156,-0.07967942953109741,0.06477255374193192,-0.02946295402944088,-0.03880409896373749,0.02396799996495247,-0.037216316908597946,0.060434259474277496,-0.06291764974594116,-0.05505799129605293,-0.0519091859459877,0.05801722779870033,-0.022436603903770447,-0.0604148805141449,-0.04339933395385742,-0.043861858546733856,0.041266292333602905,0.050605203956365585],[0.03672920539975166,-0.06648270785808563,-0.00041890027932822704,-0.017558543011546135,0.04355361685156822,-0.009994156658649445,-0.04471966624259949,0.046635933220386505,-0.04346398636698723,-0.02451236918568611,-0.06329167634248734,0.06825515627861023,0.04453340172767639,0.06232680007815361,0.06107579916715622,0.00034954026341438293,-0.03052230179309845,0.0031706583686172962,-0.0038654175586998463,0.011387156322598457,-0.07174567878246307,0.045489829033613205,-0.011742296628654003,0.02115960791707039,-0.04461076483130455,-0.0035912112798541784,0.08768942952156067,-0.07058769464492798,-0.05411045253276825,-0.03585885092616081,0.032785288989543915,-0.024404428899288177],[0.03401818871498108,0.007052962202578783,-0.07208822667598724,0.049918606877326965,-0.016971640288829803,-0.019030075520277023,-0.08402879536151886,-0.02132941037416458,0.03487753868103027,-0.021764000877738,0.08855779469013214,-0.043109819293022156,0.06949592381715775,-0.07661834359169006,0.04044084995985031,-0.06325581669807434,-0.07725034654140472,-0.02829798497259617,-0.032854676246643066,0.04080270975828171,0.013283266685903072,0.05496443808078766,-0.054802995175123215,0.04334642365574837,0.03438812494277954,0.008236706256866455,-0.04002736881375313,-0.021705279126763344,-0.049568284302949905,0.017924534156918526,0.020601840689778328,-0.045810408890247345],[0.05161570385098457,0.003433609614148736,-0.02982475981116295,0.05002504959702492,-0.02197832614183426,-0.03904707729816437,-0.08278100192546844,-0.03863640874624252,-0.015980349853634834,-0.005377491004765034,-0.001894949353300035,-0.047703299671411514,-0.0018447305774316192,0.06554662436246872,0.05526336282491684,0.014100337401032448,-0.060180362313985825,-0.054263826459646225,0.04659372940659523,0.012233813293278217,-0.04699920490384102,0.012708114460110664,0.044535402208566666,-0.033444274216890335,-0.013941951096057892,-0.02739301323890686,0.0447712168097496,0.05830708146095276,0.06235470622777939,0.04783524572849274,0.042986910790205,0.06267548352479935],[-0.08112043142318726,-0.00397726334631443,0.04620587080717087,0.04521968588232994,0.039530199021101,0.06490141153335571,0.026463955640792847,-0.0033673541620373726,-0.07887924462556839,-0.06439246237277985,-0.047918278723955154,-0.020923737436532974,-0.003860288765281439,0.004845623392611742,-0.07523027807474136,0.06306086480617523,0.055762507021427155,0.061544109135866165,-0.004228200763463974,-0.06780502200126648,-0.05504452809691429,0.024338923394680023,0.08323179185390472,0.01004638709127903,-0.03035002574324608,0.0035244724713265896,0.0461602546274662,-0.03799949213862419,-0.045258261263370514,-0.03865742310881615,0.05592839792370796,0.06741145253181458],[-0.01920183002948761,-0.037024274468421936,0.005760148633271456,0.042463745921850204,0.036290980875492096,0.011814571917057037,0.037400390952825546,-0.022343633696436882,0.02487637847661972,-0.04597854986786842,0.04562496021389961,-0.014280718751251698,0.06963503360748291,-0.025561539456248283,0.015702834352850914,-0.070550836622715,-0.008488892577588558,-0.00435025617480278,0.0703183114528656,0.04598012939095497,-0.061271511018276215,0.07564360648393631,0.06566066294908524,0.05758945643901825,0.05087270587682724,-0.06585117429494858,0.03260355442762375,-0.07211565971374512,0.03703921288251877,0.02574959769845009,0.025458380579948425,0.016937270760536194],[0.051976896822452545,0.03243832290172577,-0.07962241023778915,-0.004980361554771662,0.01259785145521164,0.03667815774679184,0.003876197151839733,-0.0171099491417408,-0.019550811499357224,0.03767738118767738,0.037783559411764145,-0.04465562105178833,-0.040483489632606506,0.045519180595874786,0.0765177309513092,0.06405717134475708,-0.0659424439072609,0.027610763907432556,-0.07788994908332825,-0.0731329694390297,-0.033736519515514374,-0.016284240409731865,-0.0700497031211853,0.07012582570314407,-0.060372643172740936,0.02677389606833458,-0.02106703259050846,0.04980579391121864,0.04594990611076355,0.04503375664353371,0.0004905051901005208,-0.020498517900705338],[-0.06362546235322952,0.007631423883140087,0.0548873096704483,0.011364188976585865,-0.00937843881547451,0.052793391048908234,0.07680079340934753,-0.07618951052427292,0.011684638448059559,-0.05048789083957672,-0.0080161914229393,-0.037403400987386703,0.06397608667612076,-0.021715490147471428,-0.021983863785862923,-0.022482989355921745,0.0402652882039547,0.01605679653584957,0.05824217572808266,0.06790975481271744,0.05553125962615013,-0.018500538542866707,0.039232026785612106,-0.010246860794723034,0.036588117480278015,-0.007209422066807747,-0.04785873740911484,-0.030697915703058243,-0.04968256503343582,0.03912513703107834,-0.022143326699733734,0.05224885046482086],[0.022790856659412384,0.06682346761226654,-0.050189029425382614,-0.07752154022455215,0.035329993814229965,0.05108870565891266,-0.05992547795176506,0.023866834118962288,0.01640985533595085,0.029799077659845352,-0.022696299478411674,0.03451865166425705,0.005728340707719326,-0.07965763658285141,0.02203368954360485,-0.01822752133011818,0.017049230635166168,-0.030543403699994087,-0.013009280897676945,-0.015555591322481632,0.0026787950191646814,0.033440493047237396,-0.07163111865520477,-0.07147285342216492,0.06903880834579468,0.024209365248680115,-0.07298576086759567,0.07135239243507385,-0.011073416098952293,-0.0021976083517074585,-0.016106756404042244,-0.07692383974790573],[0.029911773279309273,0.0010987551650032401,0.025786757469177246,0.033392999321222305,-0.04055893421173096,0.06415622681379318,0.016811205074191093,0.04198538884520531,-0.00783988181501627,-0.04371297359466553,-0.04298621043562889,0.04263431951403618,0.043959423899650574,-0.022499091923236847,0.047277435660362244,-0.006669064983725548,0.02224893495440483,0.022719837725162506,0.05298891291022301,-0.0590071976184845,-0.0341656357049942,-0.07675795257091522,-0.016747422516345978,-0.07107438147068024,-0.011909536086022854,0.01760115660727024,-0.07103511691093445,-0.05880162492394447,0.0026957676745951176,-0.06698371469974518,0.03854380548000336,0.026516055688261986],[-0.05884741246700287,-0.05352083966135979,0.0605718232691288,-0.028563160449266434,-0.05146801099181175,-0.022915704175829887,0.08808328211307526,-0.045462846755981445,-0.007101260591298342,0.07346773147583008,0.033813197165727615,0.06942003220319748,0.001624013064429164,-0.0661858394742012,0.06825678050518036,0.050618018954992294,-0.07519538700580597,0.08348815143108368,0.014878952875733376,-0.021789005026221275,-0.04892962798476219,-0.005062374286353588,-0.04645161330699921,0.07683780789375305,-0.0020932829938828945,0.00030602706829085946,-0.0683840960264206,0.006369248032569885,0.06103822961449623,-0.056975774466991425,0.035050805658102036,0.02775178663432598],[0.07808423042297363,0.08429883420467377,0.03313968703150749,-0.033659353852272034,0.050539281219244,0.03298652917146683,-0.020478475838899612,-0.05905412510037422,0.04893166944384575,-0.08180096000432968,-0.03929615020751953,0.034599870443344116,-0.07789644598960876,-0.002511977683752775,-0.036686208099126816,-0.039815548807382584,-0.022267373278737068,0.015792537480592728,0.03764677047729492,-0.02529158629477024,-0.038217827677726746,-0.055076714605093,-0.05745268985629082,-0.051183104515075684,-0.020477592945098877,0.03373532369732857,0.03358150273561478,0.04142749309539795,-0.06626500934362411,0.03641063719987869,-0.004153314977884293,0.03658490255475044],[0.046265240758657455,0.0010581047972664237,-0.06543637067079544,0.026425307616591454,-0.05976483225822449,0.047340668737888336,0.04414566978812218,0.04467504099011421,0.037809524685144424,-0.04568075016140938,-0.016297277063131332,0.06278910487890244,-0.010523620061576366,0.008312894031405449,-0.07077955454587936,0.017005201429128647,-0.028567949309945107,0.03395263850688934,-0.0516837015748024,-0.07654770463705063,0.029158610850572586,0.07736897468566895,0.07356680929660797,-0.012351928278803825,-0.030493982136249542,-0.02820427343249321,-0.04830647259950638,0.05225633829832077,0.05572132021188736,0.009967820718884468,-0.05681810900568962,-0.025943493470549583],[-0.05912300944328308,-5.2099814638495445e-05,0.004818017594516277,0.059847258031368256,-0.020417368039488792,0.08795307576656342,0.017290525138378143,-0.034565817564725876,-0.007686476223170757,-0.07296966016292572,0.04342861846089363,-0.04075793921947479,-0.06713492423295975,0.04234844818711281,-0.03866849094629288,0.07109974324703217,-0.026299968361854553,0.04178675636649132,-0.05782981216907501,0.03588138893246651,-0.010719758458435535,0.04688555747270584,0.009287536144256592,-0.040334999561309814,0.0647149309515953,-0.0022597862407565117,-0.03744138777256012,-0.019143829122185707,-0.026559436693787575,-0.05978138744831085,0.07763715088367462,-0.05479343235492706],[0.05812117084860802,0.0025762771256268024,-0.028178561478853226,0.04104773327708244,0.027829822152853012,0.036884699016809464,-0.08508671075105667,0.006572903599590063,-0.05740600824356079,0.04348102584481239,-0.006897414103150368,-0.0039354790933430195,0.009348818100988865,-0.0164805818349123,0.035232655704021454,0.020906927064061165,-0.0650428906083107,-0.02508178912103176,0.025370849296450615,0.07417385280132294,0.05795866996049881,0.006908100564032793,0.04759242758154869,0.034279901534318924,-0.036515574902296066,0.07163133472204208,0.07650359719991684,-0.00831715390086174,-0.041591826826334,-0.07045947015285492,0.08591391146183014,0.022259877994656563],[-0.0762682855129242,-0.05012659728527069,-0.017231691628694534,0.05966268107295036,0.07010840624570847,0.058996159583330154,0.086862713098526,0.03425509110093117,-0.009394856169819832,0.08747105300426483,0.057907529175281525,0.04064371809363365,0.006090119946748018,0.07755542546510696,-0.027764704078435898,-0.0299532450735569,-0.005278848111629486,0.0838749036192894,0.08339237421751022,0.02239776775240898,-0.057008806616067886,0.008606582880020142,0.011990338563919067,0.06456441432237625,-0.008122922852635384,0.02470027282834053,-0.02722778357565403,0.05742340162396431,0.007468744646757841,0.0697544515132904,-0.043986786156892776,-0.029027285054326057],[-0.05562027543783188,0.02277861163020134,-0.05685736611485481,-0.06998781859874725,0.07147327810525894,-0.036258406937122345,-0.0005675472784787416,0.05052616819739342,0.0011338803451508284,-0.06180136278271675,-0.02847171761095524,-0.06659319996833801,0.07069733738899231,-0.05003344267606735,0.02161720208823681,0.060886200517416,-0.006483427714556456,-0.05546511709690094,0.07359149307012558,0.03022908978164196,-0.021465642377734184,-0.04361295327544212,-0.022879302501678467,0.030163513496518135,0.04744361340999603,0.008933043107390404,-0.022042760625481606,0.016368279233574867,-0.06851952522993088,0.04843595251441002,0.025728488340973854,0.03223901614546776],[-0.055177368223667145,0.033279549330472946,-0.05398808419704437,0.06197018921375275,0.016028886660933495,-0.04084180295467377,-0.07957492768764496,-0.06522991508245468,-0.060601115226745605,-0.04987345635890961,-0.04688114672899246,0.002575414255261421,-0.023270493373274803,-0.020949479192495346,0.026555845513939857,0.017443710938096046,-0.003968979697674513,0.02391241304576397,-0.08668138831853867,0.008583267219364643,-0.048317573964595795,-0.04739838093519211,-0.00951922032982111,0.041879501193761826,-0.014301703311502934,0.03201497718691826,0.05691029876470566,0.014918738976120949,0.07241713255643845,0.0030780923552811146,-0.05833277851343155,0.06972666829824448],[0.047929972410202026,0.010900747030973434,0.038259148597717285,-0.07205741852521896,-0.0333341509103775,0.025955773890018463,-0.07121244072914124,0.05002924054861069,-0.006395299453288317,0.06171651929616928,-0.07190980017185211,0.06044342368841171,-0.07949715107679367,0.03465575352311134,0.03744228184223175,-0.030966876074671745,0.001873019733466208,-0.08297771215438843,0.0653725117444992,-0.04502604901790619,0.0575609914958477,0.0750788003206253,-0.0010440056212246418,-0.002712944522500038,0.03704940900206566,-0.07169926166534424,-0.04738836735486984,-0.06901932507753372,-0.005398149136453867,0.0009289759327657521,-0.06302706897258759,-0.016190305352211],[-0.0024796088691800833,0.045986607670784,-0.048039209097623825,-0.02401544526219368,-0.0778764858841896,0.010673288255929947,-0.06888359040021896,-0.07960592955350876,0.056568123400211334,-0.06808651238679886,-0.06367317587137222,-0.030555719509720802,0.0034649264998733997,0.008183018304407597,0.03648502007126808,-0.07332582026720047,-0.053896911442279816,-0.017664875835180283,-0.06544197350740433,0.0743602067232132,-0.06973712146282196,0.005553901195526123,-0.03068818897008896,0.055738721042871475,-0.05893683061003685,0.008476236835122108,0.024011366069316864,0.004819768015295267,-0.06422756612300873,0.029226025566458702,-0.03477998822927475,0.05461972951889038],[-0.005711028352379799,-0.040588244795799255,-0.04305591434240341,-0.01914466917514801,0.001621273229829967,-0.07433974742889404,-0.04673561826348305,0.0767192393541336,0.0149763198569417,0.04015509411692619,0.00273000611923635,-0.04687778651714325,0.08736918866634369,-0.05472405254840851,0.07233934104442596,0.059035446494817734,-0.04818827658891678,-0.02750941924750805,0.06457745283842087,0.006398460827767849,-0.03817650303244591,0.07607819885015488,-0.06500262022018433,0.06432279944419861,-0.047030769288539886,0.06101205572485924,-0.010294214822351933,0.009455960243940353,0.07331273704767227,0.031063443049788475,0.04615430161356926,0.07169719785451889],[0.029469791799783707,0.08379455655813217,-0.007059372030198574,0.00032320842728950083,-0.05222877487540245,0.05350377410650253,0.01780952699482441,-0.05703238770365715,0.04255361109972,-0.003288412466645241,0.023584460839629173,0.07374884188175201,-0.0520697720348835,-0.016002196818590164,-0.00018961296882480383,-0.07589343190193176,-0.03201407566666603,0.04549725726246834,0.022678999230265617,0.007125156465917826,-0.03135458379983902,0.04500208795070648,-0.06413517147302628,0.03812168911099434,-0.05620565637946129,-0.05785442143678665,-0.043437451124191284,0.034594204276800156,0.05485023930668831,-0.0036685378290712833,-0.018233206123113632,0.015326669439673424],[-0.021530669182538986,0.06582054495811462,0.05695009604096413,-0.06257995963096619,-0.018327459692955017,-0.047430556267499924,-0.05878540873527527,-0.07496587932109833,-0.03248585760593414,0.036085255444049835,0.03522186726331711,-0.023022063076496124,0.002265502233058214,0.007591086905449629,0.05770254507660866,0.017579244449734688,0.009628373198211193,-0.01874978467822075,0.04980844631791115,-0.060387834906578064,-0.057481829077005386,0.02466498129069805,-0.05584084615111351,-0.05650215595960617,-0.038838714361190796,0.03997808322310448,0.05333694815635681,-0.036599889397621155,-0.07846152037382126,0.009595301002264023,0.004290703684091568,0.04780367761850357],[0.07693907618522644,-0.03409191593527794,0.03428691625595093,0.07674776017665863,-0.05125386267900467,0.024005871266126633,-0.08278726041316986,0.022466139867901802,-0.0003411841462366283,-0.017215216532349586,0.08895619958639145,0.021047765389084816,0.00035473727621138096,0.017685966566205025,0.04243726283311844,0.06631272286176682,0.029409117996692657,0.02238089218735695,-0.01536316704005003,0.07793354988098145,0.01690538227558136,0.01870039850473404,-0.06707552820444107,0.028784137219190598,-0.06760569661855698,-0.017913946881890297,-0.026921456679701805,-0.06571479141712189,-0.07717137038707733,-0.06711730360984802,0.006441330537199974,-0.06558825820684433],[-0.060564253479242325,0.015221770852804184,0.08044695854187012,0.06185053661465645,0.04065021127462387,-0.04910293594002724,0.033615581691265106,-0.04020742326974869,0.043634552508592606,-0.0067680818028748035,0.06000800058245659,0.06520386040210724,0.008725338615477085,-0.07812578231096268,-0.031245285645127296,-0.007807509042322636,-0.018409958109259605,0.025443395599722862,0.008275382220745087,-0.04787791892886162,-0.058150939643383026,-0.0667433813214302,-0.023069346323609352,0.024022046476602554,0.07844487577676773,0.04141049459576607,0.04246247187256813,-0.012615436688065529,-0.03528891131281853,-0.05209033936262131,0.07888652384281158,2.5640183594077826e-05]],"bias":[-0.007014846429228783,0.010347174480557442,-0.005037486553192139,0.003703388851135969,-0.003008764237165451,-0.0021504065953195095,0.00746150454506278,-0.009952573105692863,-0.008958037942647934,0.007607665378600359,-0.004058260936290026,0.004783792421221733,0.004422076977789402,-0.002906425856053829,0.004053649492561817,-0.00956680066883564,-0.009548837319016457,0.007797017227858305,0.005824040621519089,-0.004049536306411028,0.007277125027030706,-0.0049072569236159325,0.003317874623462558,0.003948538564145565,-0.00458855926990509,-0.005484416149556637,0.0012302625691518188,0.0068111727014184,0.006183234974741936,0.003169204108417034,0.009337780997157097,-0.0082182502374053]},{"weight":[[0.015383511781692505,-0.03454653173685074,0.03776289522647858,-0.042576778680086136,-0.008625646121799946,0.0007341536111198366,0.017998890951275826,0.008195588365197182,0.02908342331647873,0.030005138367414474,0.006663428619503975,-0.03376098349690437,-0.02829229086637497,0.018360702320933342,-0.011376294307410717,0.004797572735697031,0.003681039437651634,-0.01873619109392166,0.0351688452064991,0.004454653710126877,0.03777744993567467,0.03380623459815979,-0.0186312273144722,-0.029170610010623932,-0.01089422032237053,0.016354871913790703,0.01077098585665226,-0.04366046190261841,0.023959646001458168,0.03585778549313545,0.03356977552175522,0.025005558505654335]],"bias":[-0.00469966372475028]}]}