{"name":"frontier-seed","version":1,"metadata":{"algorithm":"afterstate-value-mlp","trained_episodes":0},"layers":[{"weight":[[-0.06597098051073291,0.0013308491796776428,0.0340600453930488,0.062423580955968075,-0.012341444698294665,-0.0017339639363128934,-0.07855539616934404,0.07823885652087743,-0.031309977367462556,-0.056776241986796996,0.04539788766441814,0.057323002805520204,0.013311055436084893,-0.014078443515007852,-0.06874130425111334,-0.010778847969665384,0.07846005122947981,-0.06664195747566203,-0.013906150101000186,-0.04292199043626326,-0.07344475473276056,-0.05403311951789695,-0.0676318860581372,0.004439873334623881,0.078516801258545,-0.03995372119721001,0.009508950104883077,0.049566471592126696,0.046356553357514915,0.05302250207685512,0.052160440687989265,-0.06054803155206223,0.028731823432952414,0.07503897393087065,0.02871896462008286,-0.0738125150114623,0.03445260209178201,0.06942987695458284,0.05671531242141335,-0.03557547409448821],[0.04393572745464498,0.04999710856801694,0.017475342856748302,0.04047919599648639,-0.02593173212124869,-0.05605735509359745,0.017463364062157524,-0.06972971346917663,-0.05452101852264071,-0.06449530661418278,-0.05257293792887316,0.048408890047711026,0.010595871456500261,-0.033648431989130076,0.05570425602114561,0.05278052392737444,0.07530275700296905,-0.01523676783743834,-0.028954909983809306,-0.05435591403904866,0.0014826378727637451,-0.0566578390959595,0.07574191319226896,-0.07576997095007676,-0.002649639619638766,-0.007761387490827984,-0.043545946364977224,-0.0035616295892552108,-0.012921889996263036,-0.007916736773293923,0.06478195313556885,0.06945661929300413,-0.056130905203009396,0.07141675439225041,0.019393992233761065,0.04133606297278726,-0.03070855748446693,0.07347725382323873,-0.01761468729249499,-0.05650596182464809],[0.04593180467374715,0.011437634814084885,-0.012383666988673742,-0.05003205116390676,0.010373092737228126,-0.058156225048120944,0.03954624038940434,0.039546573859236295,0.05452209383394692,-0.025769717706377177,-0.036649493500398866,0.029252575580450968,-0.06937308876896721,-0.04119400315814499,0.04049641306054674,0.00547579963166718,-0.055531711927116964,0.01338174653356651,0.030503908551411177,-0.04621082149669494,0.05163243697307425,0.05120063754902619,0.021923595445452082,-0.026136897071220896,-0.04598647187421733,0.031747650793758506,0.0442389903350808,-0.034525160741972365,-0.005074176937533342,0.030873936626544293,0.07534973698254373,0.06250848805433733,-0.00424713780487046,-0.05104786371775838,-0.008600266403123169,0.004598075855904965,-0.015217513926253312,-0.019622226663579913,0.03983921071661635,-0.024148858129939457],[0.03179069789996483,-0.040554444807436314,-0.059184640951171694,0.036703955636787494,-0.007205908304630401,-0.052200373911682266,0.0010208248053897029,0.056652604592558095,-0.05521363929914513,-0.015569160065878412,0.03905071342487833,-0.0123994433114651,-0.018323969810428907,-0.0536413931131364,-0.023213208484107406,0.06820353815860956,0.013219342789561286,0.019632150793982034,0.057451937640952536,-0.02315835326465189,-0.00025964915358261953,0.022587615810338163,0.029950231872897415,0.05701732005180117,-0.0566884685189971,-0.0476169063533672,-0.03783752167115411,0.017428700958598747,0.07949612570573773,-0.05836612740123112,-0.05229540803355434,-0.0641440246690245,0.031323513941940315,-0.036490659086626936,0.07528027101906544,0.02835541577619699,-0.06852199291108114,-0.04644778007272082,0.009266203622822489,-0.024188709088303784],[0.03232152660514512,-0.06833708504158892,0.00262193953590259,0.0042945534710992495,-0.024285869455476783,0.006000776639588631,0.0019882371468017968,0.033548996338416265,0.0662363827701848,0.007075637734125839,0.02323265546210218,-0.01691902404986252,0.04462576487474547,0.020176451396905118,-0.030278355109613117,-0.0225358367085485,-0.062377350098732284,-0.06378984709155672,-0.03612014380180783,0.010351420863744437,0.04885172252649557,-0.032070810321384896,-0.02843909521942553,-0.07420473831102196,-0.04475373584744876,-0.05030808868825341,0.016632460284191228,0.009014439366442431,0.0034321854751944575,-0.06439235323210406,-0.024407766216285542,-0.04243646835058124,-0.06398914679022687,-0.048365073459869276,-0.02461211281335647,0.003988992301436289,0.03467653068419098,0.013364162393985135,0.03801559013779368,-0.013066339988396736],[-0.04461187787064395,-0.009579159731416306,-0.01011099052433835,0.07120435802058588,0.003399934484698844,0.07621859973970595,0.06424899303196806,0.018942196870027586,0.04529264399868148,-0.014677478468525879,-0.06285017641629201,0.04170347015834165,-0.0709914758210336,-0.049989614280566017,0.05748389756089421,0.008292425704966869,0.05639876197238099,0.05141061023869843,0.04297807041264612,0.07344230991114499,-0.005770080196797825,0.055189039399936954,-0.06845714165698442,0.024891100334788044,-0.06341593601421538,-0.03776346455200015,0.03695589764923493,-0.07965505185473061,-0.00432896495577699,-0.004476597215439734,-0.07778597512163092,-0.05046121918585428,0.06742704913434731,-0.013584538385152736,0.06177484678570709,-0.06114045581182195,0.04909543965390718,0.04736530363892903,0.03458306565278563,-0.03686968655484034],[-0.014555359082127323,0.009286613083446402,0.03630568234964264,-0.07431456341163713,-0.007621649048881823,0.003988532387460761,0.07296458125471421,-0.009848575539393972,0.043538481550156494,-0.03408772782734074,0.05890804493390962,0.029957459220361318,0.05537757084269397,0.04584104321344941,0.013851034958924716,0.008731498600274529,-0.03941082214994742,0.03348042508280877,-0.04637343496728048,0.007294604625493584,0.06076247557188867,-0.011913273714259917,0.002499824509004267,0.06113817837638401,-0.034648889218217745,-0.021761356101209016,-0.028815140819306057,0.044841241719865435,-0.03156837128528428,-0.051214700319527684,0.047518893144398514,-0.07295161323052851,-0.043838011647137236,0.05749982762178875,0.011463129990113077,-0.06864410622302933,0.03125984881017155,-0.0691189756018316,0.0026468479046599797,0.06179984691289615],[-0.045183324371262636,0.014487025024956302,-0.038214032522887534,-0.03475918771050969,0.04832887299915421,-0.07668138181902646,-0.00765604916381768,0.05983688805922836,-0.07462180540434636,-0.06217861288462659,0.0019603233882379972,-0.0011472881852142014,0.036833991493672155,-0.010725449283769062,0.012862832345887795,-0.07546833920658547,0.0716414487463443,-0.02837400767968916,-0.050875693960983986,-0.03350168665669557,-0.04859672093146509,0.009120784682955102,0.006696534942094545,-0.03091891830872312,0.04876347678002742,-0.03534007831200407,0.07614923152958984,-0.042741057179348,-0.05878207693090515,0.027151914118969722,-0.009927262215175786,-0.0768735029183891,-0.0602329319617312,0.05921496331464492,-0.05217597265054731,0.06938361375656661,-0.06916363077827523,-0.0521308630452976,0.06720237699319152,-0.05468240798078611],[0.03336786005981829,0.04953346615607872,0.06768589838800694,-0.0787998670651665,-2.046680987337346e-05,0.04776184845989155,-0.005461378078816373,-0.033957512554084794,0.021036985136513794,-0.053950527643210115,0.022632954826275142,-0.05620773304575961,0.02043401413791497,0.0605038902121907,-0.07551056071176579,-0.07853814306220061,-0.025671377541494976,-0.0019704776502167815,-0.054426782381343894,-0.03230721183437368,0.02720638257549783,-0.011100127542880922,-0.07552818220352062,-0.016994659141439925,0.006525444199938182,-0.007073087880919135,0.07929283267633248,-0.024055657065259112,-0.07861042135344647,-0.02941296661528632,0.0765569018160351,-0.06899337307119369,-0.028621873189330835,-0.07308096369889933,-0.01361658688304164,-0.011741017590404038,0.019328122833759925,-0.020471570409578595,-0.019749795068049067,0.016441072378065316],[0.06722110744846606,-0.04745902431770027,0.07562900446513889,0.009646716099301733,-0.024211618180243893,0.03455266981144972,0.05651174173108754,-0.054460291567570034,0.030180948262748405,0.06486175884277821,-0.040694668981180196,-0.03782273043193323,-0.06985175237601199,-0.006043366012074142,-0.017483167175765882,0.017443614153122414,0.025788183899857875,0.07138512610246421,-0.06400972146672071,0.008900570790379078,0.015059744559041424,0.010292620626195528,0.050254310041922504,0.0072360586827402845,-0.04190522579342629,-0.039073907763229575,-0.02485383450117956,-0.036272781245658976,0.04557069550708813,-0.018119279211378868,-0.024410653027571297,-0.07578533756991901,-0.0340478871065643,-0.07889016555690281,-0.07917321574598951,0.03811179146999297,0.07570701560735622,0.003114691651306553,-0.0428534949221825,0.07333886134217986],[0.0023878228609358065,0.07019003507987402,-0.03221850555148091,0.07809604363179921,0.0226932516977027,0.022941244251027212,0.01905787146349827,0.041058836037364876,0.053166228784781486,-0.059001352178263834,-0.04663148044401762,0.02732070026392394,-0.05066049915455052,-0.006242343657259702,-0.007369224478738182,0.07738802874686897,-0.0046205079789128495,-0.012589884224070202,0.07221899508925402,-0.017496836980090635,-0.008152590135641388,0.06236387025141586,0.06584520467757722,-0.04744264301683163,0.05989024839498654,-0.07138688330567412,0.07255609357813643,-0.061688641619353335,-0.011253040018804603,0.01450124229862515,-0.0725697100316835,-0.02135593672154764,0.05177011201176711,0.06439077461025051,0.04639638153350083,0.046812561394199245,-0.05676369141140265,-0.0003564400534152995,0.053464555264034666,0.021086911503980607],[0.021239607684393466,-0.02690366346308329,0.024843206036130397,0.0483516196468949,0.04502212352578912,-0.04033643518274712,0.011029517450922496,0.0077818556988841076,0.00914226947714479,0.02223290726657197,-0.07909795978624967,0.04883309202670551,-0.011606916739891934,0.07751075303823264,-0.06979569086211812,-0.053310768990316046,0.0018717862356344567,0.06526918858293308,0.07627128979384006,-0.05488182076166112,0.015069730777778234,-0.036464814748670145,0.07737919036936851,0.050447071255482104,0.058367753789443574,0.05119266397339291,-0.021298488565850315,0.0003811942946782554,0.056832708804128815,-0.015402339190009509,0.05905928466020123,0.064586680231615,-0.013336102543593395,-0.03671567757300494,0.0433449512322653,0.07455801414437095,-0.07808319799933046,-0.008041154044850868,0.03408012852514768,-0.017944601317303625],[0.017181250853842686,-0.07687197364243296,0.03322738045434358,0.01622860742337426,-0.07842834193592521,0.025529883637737033,0.035137327589472106,-0.03781668262125953,-0.007741456996349691,0.042117234486918356,0.04329938685779497,0.06963013943329795,0.04821774853929413,0.011702050932112129,-0.0693416241977988,0.06885354387502214,0.05389383506462152,-0.05870563046603376,-0.034302080322884336,0.007090076297967651,0.0459203637095741,0.0545251080995388,-0.01500107538898593,0.013338787650044759,0.07035036926013298,0.0627319331167623,0.011787156832758314,0.06833074359584422,-0.026359685544056613,-0.03762351852870719,0.0033827591356060255,0.018312305266664358,0.05136016767500577,0.00015223342356661396,0.00479981607741678,0.07183610993228999,0.01823010330678025,0.04550241973538234,-0.0668659065868409,-0.07932215429790752],[-0.066346610098384,-0.0645019483846267,0.05989454160206663,-0.023064229842912773,0.07012564930597263,0.02700384340731951,-0.009212044184363888,0.06508936050356774,0.03354341098184695,-0.045383504760313116,-0.07876644207916744,-0.07936649645370306,0.02852135634138453,-0.04349291792245632,-0.05879624534703117,-0.06907147171656261,-0.005455856601058587,0.020888432504552495,0.07374566785541349,-0.015296734333187526,-0.029855804217123118,0.058756294773014986,-0.011111053684341746,-0.04423951526506024,-0.0250346708052124,-0.0409211596160163,0.028351225707329633,0.007157833820571738,0.03534827199899575,-0.012148807335453177,-0.07112616644944425,0.05623543929862236,0.0004641844490824998,0.04462616965782126,0.021830125359273728,0.056643091272143356,-0.020269659077217332,-0.07930010132065105,0.044733111849961885,-0.037681785741090844],[-0.07778319963945833,0.037343459741889795,-0.006316873763372685,0.06968099807651522,-0.03825956627043489,-0.023150584740670957,0.005170363281095547,-0.07726043697316612,0.051578348929905385,0.052804830505639735,-0.07549285116551485,-0.06613656020001248,-0.029186451215173152,0.07725965892241114,0.041095260388118934,-0.03464661880930164,0.07143763019170661,-0.029068424894564127,-0.003029819704302966,-0.019840252163152654,0.033294576015302585,0.049538865115401634,-0.06377904688283392,-0.007381405038086,-0.039356348707335266,0.07395051651852859,-0.013926869289345181,0.003883675842513576,-0.05425883893482855,-0.024103612732100148,-0.07001230830394901,0.034553297854773735,0.04601964730969012,-0.058407054311343354,0.04358808473044436,0.06478750120543096,-0.030715833598349306,-0.06797700663086877,-0.020797334660766255,-0.027326300494780756],[0.0020925442548386936,0.021279737505779328,0.04590447806292265,0.03280949729019167,-0.049817357298238,0.06559085920903117,-0.056933768897014764,-0.06320079437463622,0.07557616546365907,0.0030876171563651023,0.03733007848552475,-0.026866163463153826,-0.061322776775504996,0.06853522913227343,0.06615367805543308,-0.0017946387618111848,-0.06534128167458446,0.06951860558808183,-0.059546153109056504,-0.03976005169078109,-0.008545184966950531,-0.012169307589585843,0.01735150273471435,7.650568486182452e-05,0.06634894941240181,0.043860954967857954,0.03671447561772799,0.011648540922305148,0.01902027585079842,0.060788728297671776,0.07335285080475733,-0.02551509490181733,0.06337146870394088,-0.027417346779910368,0.03572754546189241,0.07524831347454937,0.06951711213922247,-0.04707978844551986,0.0639811708756962,-0.015269284733394284],[-0.05182883801744645,-0.07211761919916689,-0.04380778641658585,-0.012195615469823604,0.07804818852836602,-0.06275357276393934,0.06888800616343656,0.004544790021899697,-0.05204852316702223,-0.02414578839292158,-0.0020820188887908653,-0.02494182470685203,-0.07468574753984475,0.04027603012039231,0.021374111594281972,0.03853727582265963,-0.06935631938865539,0.06600492466692713,-0.006382393211543269,-0.04258965992209872,-0.02429170095410662,-0.06709840195793002,0.006509977344452106,0.07211338453234963,-0.06579313166131286,0.035754148955328205,0.05509630665799027,0.030040145479932043,-0.04126349916346593,-0.06178081643047109,-0.03492427644277637,-0.045982067242838,-0.07513238102718653,0.0055618745524134705,0.03732098621544652,0.011869376148631497,-0.07132307140368824,-0.059063820703066275,0.03947987042459854,-0.0012871862174926862],[-0.05715270191459952,-0.04550742793050809,0.056906553810027946,0.0638738272966737,0.018406795710584276,-0.06322904197887365,0.06972835792820965,0.05426199650896303,0.050061237682079665,-0.011016577713983441,0.007464899325007351,0.055677467032841696,0.054836034838823614,0.03601350931315646,0.018484843140422175,0.02330468101351213,0.0305830041780914,-0.05637351761193163,-0.06278306305265768,0.05013271418767955,0.040508835326138956,0.048892288211313764,0.06129263769733391,0.06193810050173819,0.04905216367423636,-0.005166828283874755,0.02878656910726146,-0.04284742653146134,0.02466273854020544,0.04799621316256443,0.03006279675080803,0.009961367888351128,-0.03568163283069253,0.031819347325240124,-0.053518123508692186,-0.004884279877900216,0.058774105874502006,0.04345876544003305,0.06898474884125715,0.042903901839535824],[-0.04796910015162453,-0.06619331932509255,0.07871326606788852,0.021535093612514072,0.04427537357240821,-0.06404619467269579,-0.063689149297731,0.028695977164720166,0.06345341017401783,0.02594159105419254,0.005569099959840354,0.020529687950243528,0.0018304968047998388,-0.03369758408636262,-0.07675120560871472,-0.01605651365042894,-0.04566317058437834,0.036422834223921896,0.000994713625446661,0.005558197506387363,-0.01732880984694879,0.035265736017447744,-0.07185837953054156,0.0015967364864193923,-0.03453411187042876,0.07403849764915359,-0.0339334771337969,0.050565904620723204,0.018091574275691608,-0.0010937586782718417,-0.04339351184066777,0.06927157149219641,0.06831234918855965,0.03148218449620996,-0.018497463539292623,-0.05156218837074113,0.04719182630851802,0.06442388404275927,0.016739123367096584,0.06101052920078691],[-0.04565608482688354,0.0437754488746233,0.04452997254841537,0.07327338540631202,0.0750103951651039,0.042971389825800746,-0.029884777132719566,0.07361871901693699,-0.06905668728857861,-0.028345040431980398,-0.058566038137377915,-0.009741268401907116,-0.046297641472088834,-0.03550548537970276,0.07101604618499947,0.056556202047039414,-0.02980378740795768,-0.05523478508830104,-0.043187421447591544,0.03562897995260768,0.029946575057422112,-0.06089545927633397,0.022540473880023823,0.01633179324342189,-0.04573571623409423,-0.07728168953046248,0.04789301128987257,0.040254664188257405,-0.046762726151261924,0.00307721205759863,-0.07785020174917992,-0.07579859671592931,0.04265789096084911,0.013475533044815455,-0.024029348782819024,-0.027162598857666823,0.05352603092926335,0.04562968880296371,-0.05214747316029774,-0.008484109476207188],[0.07477039307837684,-0.049112800474891694,-0.044222216499386346,0.026072264927415892,-0.006516388508844437,-0.021153787158395547,-0.0663860022684965,-0.06908472170121475,-0.06935056101702658,0.06593023573176031,-0.021697230733636948,0.03592818101187613,0.04372439108168327,-0.07267280279097678,0.017787653022200214,0.042886872360352546,0.07717080152920384,0.03495055386332681,-0.07424293978313573,-0.0394406118077698,0.06787216477159703,0.03561388602128486,-0.01992282205368886,0.07688988509061644,-0.05997471266775124,0.028788337202840478,-0.0693208849549086,-0.019233256432997975,-0.03483979758175929,-0.022852727145309032,-0.0755777867656261,0.02306100243582508,-0.04721008637298745,0.07944680195271979,0.015578454713384635,0.0035072842061902726,0.03520917212778406,-0.01856927509626674,-0.018276993207560682,0.023901961099573543],[-0.015256738744297046,-0.032969150747552675,0.05284042663259965,-0.07023786866435998,0.010191286843039077,-0.05194436083583231,0.05688512226992683,0.06572308273536352,0.00263677074885664,-0.011054409118473357,-0.04691175963178799,0.04832070599217771,-0.009777635177989796,0.03613471008564924,0.053040571385269256,-0.004403408400150188,-0.014195397245483563,0.0695928669413239,-0.07312644009552242,-0.003938381610701522,-0.04197405781329534,0.04824239762301065,-0.0716405497211845,-0.01909848191886937,0.06417670854803452,-0.03670845460475132,-0.03503467909986926,0.043562911797746864,-0.030000622721415217,-0.02895197746942721,-0.032177895712101584,-0.019299424844167523,-0.07661226211164066,-0.0441551122681472,-0.053950687058943916,-0.04504737770329383,0.00203317939358931,0.020523761870042664,0.07472566094783352,0.03729623706855628],[0.04661920076182287,-0.07251956943153244,0.03885531940168038,0.019958130143618732,0.04627275548587721,-0.009519719835918802,-0.02650872471679254,-0.024336209158366436,0.022379052370532032,-0.0054252554412586584,0.00889675171053167,-0.00979347334330219,0.03937899418956653,0.07696106791203548,-0.03986303872155524,-0.03231787944407213,-0.009229976473116977,0.07306920314442646,-0.04214196181044299,0.05294850898792021,-0.07117028581282832,0.05203340240096581,0.03530813905090137,0.05336259134996084,0.05626455315293795,-0.053815386234736876,0.07950509196587553,-0.04047546551684402,-0.07076372891078055,-0.015757412050901143,-0.036495310768542046,0.069581584982073,-0.06684439069002546,0.0636068632524018,0.048825039086695346,-0.008168994237470403,0.04572708787418718,0.016553284254183162,-0.03512505590277058,-0.027548327734368598],[0.013207720371210374,-0.026910382262504168,0.03890423835672381,-0.03549497071163057,-0.0030052263750844216,0.07735076381493262,-0.0435796504543908,-0.009018191632416267,0.0013482374909911388,0.006867885462712983,0.03825814413747676,0.05483453647026136,0.04605675130154217,-0.010479883796285103,-0.02763839829285441,0.07146239790125687,0.05610697453330492,0.04164445946269804,-0.028517750430913848,-0.023626977866788156,-0.027919889370304103,-0.05356044612208606,-0.023366224782810682,0.05416515100452078,0.011729869979781482,0.0008019554737150048,0.0352888788221415,-0.02440317857368369,0.01069162642708843,-0.02340806267598488,-0.07202833377956312,0.06755504005811104,0.021752752433104802,-0.027036257253073438,-0.02025101232932839,0.006107574824378362,-0.059678931789901274,0.06451143651232351,0.07721208281643353,-0.01952774844811099],[0.02947363366855052,0.02203168347703642,-0.07392156054891942,0.026242111602298654,-0.01047027074144763,-0.0650319085385609,-0.06032674269994834,-0.00709290205217869,0.0418124567798243,0.07368029362404722,-0.026171163178490796,0.03997108224007537,0.007135947474811957,-0.014513694073749014,0.0013661396110519475,-0.06537004623296604,0.008825693016410646,-0.00899482865160356,0.01752525325926986,0.07433739760030876,-0.06940163299594085,0.03355731805992067,-0.07948184938317449,-0.04347333930184119,0.041033308312145425,-0.03432120550091975,0.05831408587978802,0.02061652710140953,0.06994411598733664,-0.031294324118154734,-0.07133934841623304,-0.02328136885009688,-0.0015516279318574244,0.005266944436358473,0.07583338316479259,0.0531632505766025,0.018536399296401912,0.052630204035820735,-0.006452344461121487,0.03434990056708212],[0.06143267744436558,0.049293921353488604,-0.007879913496053506,-0.05816259396285327,0.012396415601466218,0.03828741373060025,0.005487734960935672,0.07402213262126002,-0.05538352610125985,0.014366990885142913,0.01922477992470001,-0.06737957142557013,0.011511924104068927,0.035392170989325164,-0.05933968609344127,-0.0016568668230792089,-0.06081081690917721,-0.013661088659648157,-0.023684628914538326,0.04844256679137053,0.02274579298680153,0.07530636816889615,-0.06907585600813464,0.06615367788272121,-0.04312749299200574,-0.0514174331718802,-0.04324708372436044,0.06288910833415633,0.06597443077330535,0.06117788551593316,0.010235777265405158,0.0542142453593706,-0.021598630486723544,-0.022261528986614786,0.020161688185146895,0.04013780228405249,0.023721548310209742,-0.05095468410117125,0.035167641754101295,-0.0003243734095445955],[0.013009302386130794,0.07387254943526121,0.05315245374711165,-0.02750025550887765,-0.04209400328076793,-0.07558323359166069,0.01931710537767868,0.05639462852022255,-0.07119042029918138,-0.024768161997011262,0.008782400798179338,-0.050535940537033835,0.03318857074906553,0.03564705990424252,-0.031081672669150337,0.07215085008702145,0.06064071515871271,-0.0369055927511639,-0.03354029245183274,-0.039359080180973595,-0.021771196043384365,-0.07992734711554464,0.03190764859788546,-0.01980000776250078,0.06456945990341155,0.06442727446451828,-0.034918344075363594,0.06831659551663248,-0.051940777261656454,-0.0443165862275171,0.057257564389847734,0.04692121299974729,0.021040178774987095,0.047989481205937226,0.07059915275633875,-0.07629267564301104,-0.0613005138437214,0.019615958294756167,-0.0636592615662753,0.024284695037830165],[0.011007143261264965,0.06756607946020395,-0.06781537772696572,-0.07923003423440711,0.05253413052281607,-0.06697630910457315,-0.05211907732101802,0.042611808330360046,0.03142802930348161,-0.0134324441657407,0.06452364289165079,-0.059828405294550815,0.06860619254305476,0.0797707481073726,0.038886052133878066,-0.0383189560726008,0.024325488623729352,0.042628270166919294,-0.04234847896162139,-0.061104467431920564,-0.03311872377137233,-0.054396193266407294,-0.06269847122993033,0.05096014809593356,-0.0031091582106530097,0.0674403847924306,-0.046971709927626136,-0.02166692552698015,-0.020846209375614343,-0.06694273004247515,0.05511419073413422,-0.018009812117908856,-0.06323992657141717,-0.07674859512245542,-0.03432710375116761,0.042531806972366915,-0.06311128850730334,-0.004690264387036153,0.05613889004087984,0.039947541837468514],[0.03576195074061529,-0.02264225025471804,0.06533690487717948,-0.047988190504803456,0.05570291375217161,0.03868269366152308,-0.04711739597577989,0.07638904656173805,-0.05510686506185641,0.0559892337339377,0.025484709044906934,-0.034973061471985735,0.01144783646924391,0.03221357020968489,0.05011713121783738,0.006336967208461816,-0.06545877393030258,0.06155808361438449,-0.016328898595850155,-0.04637668606930346,0.006008742769886166,-0.06757654986877291,0.0066360480128480615,-0.019489235571530657,-0.07629877851284916,-0.020781867798817084,-0.019600644312962337,0.05713959369047582,-0.03732628676714082,-0.027453201793552998,-0.07415312888563816,-0.05091413769214963,0.019110479863912302,0.022009645097544772,0.05398077279009812,-0.0002799625107682002,-0.07035169412135049,0.04287120955998104,-0.05435895274545928,-0.015626433605893275],[0.06869551798412761,0.07854041387723336,-0.07424485065994492,0.026406684166556976,0.01796622803831456,-0.036688106519001895,-0.02061587702731492,0.0618732932635767,0.01172647690350015,-0.03324623988742804,0.005386184464074739,0.013722991512562913,-0.04116274176341966,0.024621492166381723,0.00025525734515804976,0.07421212388182645,-0.0188363545875481,-0.07244418793590256,0.07112021831925698,0.07329242693235145,0.07738205254562512,0.05598123572192269,0.07217537307093734,-0.04378533170889936,-0.01952295115985237,-0.05593293621668913,-0.07223704814609753,-0.024211014701124897,-0.07536589058241143,-0.07078918301403488,0.03329964270743803,-0.037240758978473884,0.05122717106875442,-0.0052937436669016485,0.018736195689356402,0.011730330887960938,-0.037450166618722386,0.031035979951945597,0.06487574533215522,-0.05522597470248598],[0.06672523725889833,0.0374425002230854,0.06690078258483818,-0.031076076483543727,-0.020044119065457784,-0.002701431649922842,0.0101028454037453,-0.014347542170360175,-0.036220227358772054,-0.02316075240215007,0.044067390826209876,0.016280635968106583,-0.05576812788283263,0.07830776651537881,-0.04102114700115678,-0.02359371340978255,-0.044611568061531826,0.008278033725856254,-0.01548746046735866,-0.054027578505517954,-0.0717705576657115,-0.07009598884473955,-0.03882506522419609,-0.04673413342118822,-0.05063904244560653,-0.004307114795989636,0.056790377803386985,-0.05587087620352433,0.06917737812254394,0.040996630007915036,0.0627119921298112,0.006703358372170148,-0.021868777992044723,-0.021644952661306734,0.047254051297318536,0.043388969211247144,-0.0726681724653422,0.07409742577179836,-0.07070698530208132,0.03965640632369534],[-0.07494332973456397,-0.059796731184988856,0.03920273339300871,-0.06977998625039188,0.06761797660894601,-0.036294326045665314,-0.009939125098475138,0.036830714778929144,0.05283932918905239,0.004004376626612932,-0.030013653327611696,0.035686632315790376,0.05797453979224958,-0.05702276880001611,-0.014750095959030637,0.024862205635245382,0.015830089695091407,-0.0713746512434535,-0.011956308407156599,0.018909421336847976,0.030349810968570146,-0.018988899297177557,-0.05143688154884454,0.07181694074880567,-0.03755963785322443,-0.07764091351336508,0.03924598670018303,0.03298452491003548,0.0037936989419935924,0.02547996033787714,0.06917656106861501,-0.0056013832778595285,0.06379582575373101,-0.04032067057377386,-0.05670314316959127,-0.06927224927862609,-0.0007301082350191362,0.03566761094852572,0.007332693935550569,-0.008438654748298427]],"bias":[0.0,0.0,0.0,0.0,0.0,0.0,0.0,0.0,0.0,0.0,0.0,0.0,0.0,0.0,0.0,0.0,0.0,0.0,0.0,0.0,0.0,0.0,0.0,0.0,0.0,0.0,0.0,0.0,0.0,0.0,0.0,0.0]},{"weight":[[0.0755968051169021,-0.07182311112240435,-0.010884835709743468,-0.05879744214868758,0.052011931401018466,0.07943795155842452,-0.014596755916504445,-0.07168992860391106,-0.0024531648172201603,0.0627358411725009,-0.03125211749124827,-0.0695555678235769,-0.05807087874552808,-0.004994548079857747,0.046009806888072255,-0.030682590120845107,-0.06935933049410764,0.028840528745875865,0.04614510340595866,-0.02543162656762904,0.025232991133987956,-0.0484242558418982,0.04516685828150559,-0.06456088928030729,-0.0675418887503128,-0.024425539369844887,-0.010248752927306898,0.06620500297172162,-0.0020454003026997153,0.04529190454004016,-0.06915447777462355,-0.032133160026528634],[-0.02582825635992178,-0.03833885982152589,0.052421986662952516,-0.07158083011165906,0.027645074344494883,0.061471441104189964,-0.046101843024793504,-0.03164290961078642,-0.0596597021515837,-0.034950516286418196,0.01060577885746282,0.022223208829133603,0.06766202923327082,-0.035316090582006084,0.027356253520247606,-0.01876790216915529,-0.004762193242015891,0.02660211145355071,0.009616576855505043,-0.03165505565939251,0.054806048341476135,-0.04179860331920288,0.07477666160867404,-0.022493844849758256,0.007892770746042943,-0.03715874582673113,-0.07548914925572156,0.017654920144865832,-0.06139432296752691,0.06595313299172188,-0.02942457815723589,0.07614456872898522],[0.028350702581822637,0.05823322700890131,-0.01967935729540054,-0.0192080601048141,0.01737233450649102,-0.024663918536291636,-0.02918891912819902,0.06899664761648648,-0.05746605837661463,0.0726324878909148,0.02116286751992401,-0.0426364444762009,0.056531340915399866,-0.06241914395478522,-0.07382859639221226,0.042525824065798634,0.002791163208946887,0.031990156073418985,0.01069063532019332,0.04349714107146209,0.027014859314425654,-0.04689974302592599,0.02684322372815172,-0.0035267096451026825,-0.008517556281705876,-0.0734737194063853,0.008281668494164118,-0.07504928410036144,-0.07626009579641466,0.029321124559456957,-0.038811799832841734,-0.07995399158464739],[0.06347356317378199,0.007188949301507749,-0.014933987099506357,-0.06179899276686955,-0.058419758529838314,-0.02077279648517276,-0.018726974720315877,0.06772912718503481,-0.0430085661350363,-0.07549971541035438,0.06762747419403554,0.06600094419749662,0.05490343956877426,0.07716414094005243,0.057017612298707596,0.04656110904519474,-0.012118698099993719,-0.027149693886496067,-0.02110631671985351,0.04853679735965104,0.0731789439862272,0.060848186864848844,0.001770514699362541,0.036352790809174085,-0.015947902896496724,-0.03132467814346173,-0.07606481143249658,-0.06569961116451017,0.03921670287758636,0.06129513020284098,0.015232388930372043,-0.07127931780558339],[-0.07669058594707875,0.009931511499565171,0.06973870446515214,-0.07705970132549676,-0.03693905479844146,-0.03498219885324502,0.025571233820993078,-0.057334343303486066,-0.019110154149224297,-0.02142792940907077,-0.0032924670048579685,0.006413499087080415,-0.06520373015103414,-0.01986171162015731,0.0656336580114293,-0.07873935651904602,0.047754673208492485,0.03153003609778689,-0.010209985468827676,0.029812799661188882,-0.07821396284194851,0.012157601238120097,0.07241490040758826,-0.054216943562944805,-0.013054309352906801,0.07058539700325288,-0.05748307883725254,0.04324216617257723,-0.002056794293639419,-0.06453668861478072,-0.023191194511543715,-0.029786797067601165],[-0.0731426177332131,-0.04409440802071011,0.011526224154196185,0.04124740049497001,0.04978145955818376,0.058792868750338304,-0.04762142357152991,-0.004329086944033098,-0.04964080815802488,0.03554011056023883,0.04447093859427115,-0.04367602466310855,-0.004558360032543882,-0.0547754112588847,0.04416582100809549,0.07057835482421827,0.03175022598181068,-0.0636468415745143,0.034229186176588516,0.0014344511714041441,0.04037072061728404,0.01498264402922267,0.014813437993811837,0.07994816206539489,-0.05793692969296384,-0.0629024518608645,-0.06058277117095821,-0.03553302207901224,0.03741481010024915,0.04722959866124633,0.0614078430613955,-0.07119574588674148],[-0.0754892030718354,0.006163661793932351,-0.021764006699346937,0.031220551849503425,-0.0665210634291748,-0.001104975480996362,0.027830581954532127,0.0485057671516637,0.01851646115823727,0.03319255140046273,0.048152877765685984,0.00792667610545203,-0.06859578459216108,0.03064286371578058,0.05605729477146283,-0.014589205710722003,0.007056902075129851,-0.06803086137468617,-0.0365593135093855,0.07088343551239089,0.03472511986851182,0.05199538400529634,-0.03442261010726987,-0.07304630797609057,0.01707652364115962,-0.016634137121565265,0.052941708099419324,0.048525341130229396,0.07511571383494507,-0.07332819711104327,0.07277482963417044,0.04662847239611535],[-0.020575567687176,-0.03891826769529164,0.002169891815442637,-0.04471536418559422,0.047982434886295625,-0.07033933249116321,0.020944839378541608,0.025041668776822817,0.05183652182351593,0.06977242998407122,-0.014869041566692248,-0.0660221297829012,0.03633431690888342,0.07268519051209198,-0.0024929360110463317,-0.07110495895465546,0.06477255621781329,-0.019853851804491125,-0.029095919035685452,0.033851113872210986,-0.027991902336967807,0.06043425907255888,-0.05328502762838747,-0.055057992090396815,-0.041693166309194944,0.05801722674096223,-0.013045029853098827,-0.06041488074599714,-0.03415001218298409,-0.043861858396702175,0.05086468842458915,0.06050395775081811],[0.04620430599291013,-0.07450638642287218,-0.004445976926862688,-0.01755854349704139,0.04355361671829952,-0.0006431186401199274,-0.03391787293416344,0.046635931456366755,-0.05256004327611564,-0.014157892165726299,-0.07104044439357982,0.060542216325630185,0.0551948315910082,0.06943496121970986,0.05429500791175658,-0.008370578450152821,-0.030522301448859215,0.014536082591617608,0.004648547899546052,0.011717941808790308,-0.06193664167684581,0.0454898295393341,-0.0012483199340311973,0.030362202775137487,-0.03920718825737364,-0.00879294712994072,0.07846355019225613,-0.07058769330690312,-0.04324604223142409,-0.04527190121588863,0.03585864515470949,-0.015554550893772223],[0.026270595512474446,-0.0035737430734447684,-0.07933968093307225,0.04991860809206773,-0.01697164114923122,-0.027854487441924022,-0.07450661171462118,-0.021329410275456213,0.025582839979126387,-0.02494023788057529,0.07845248950379242,-0.051770361356775256,0.07599727942112429,-0.07661834541113084,0.03368399613002719,-0.07209898307335369,-0.07725034786661994,-0.03662800458825327,-0.032387597037896294,0.03164985303973204,0.019499630557646197,0.054964437112298384,-0.05575881853151451,0.045925454609259606,0.0257022877464083,0.009278888185252257,-0.05038906167609769,-0.020380854278525345,-0.043668281071033765,0.010229748724433274,0.010556589527318097,-0.053514918871253606],[0.05422499080201064,-0.006482156995647456,-0.03882090315725414,0.050025047826042265,-0.021978325806279918,-0.04834456107666087,-0.07136976171429364,-0.03863640700161325,-0.023893057946585826,0.0044630649026510955,-0.012481630476663452,-0.05694847838728574,0.008691670008655963,0.07260966790880903,0.04874280729953333,0.005135261511451328,-0.06018036210155616,-0.04428400261002739,0.05385021975630315,0.0029112500823743614,-0.037465902200230855,0.012708114262874784,0.05494221913399129,-0.025060745872095877,-0.02279010310777245,-0.0328232168498061,0.034544562028786224,0.05938766754552956,0.07346919435128661,0.03881066419175401,0.033501275906873504,0.07231165537695249],[-0.0704554231043523,2.7248353673070547e-05,0.05513322545516518,0.045219685685342195,0.03953020012075621,0.07356610851212018,0.014771669322372324,-0.0033673541201690443,-0.07331964065029163,-0.07499206733665716,-0.03858627274622625,-0.012867289660334708,-0.015092036002858841,-0.002294239506129628,-0.07523027581181532,0.07162302136839326,0.05576250810511367,0.050342252963986825,-0.013564149020781444,-0.06221139368927052,-0.06577567793928578,0.02433892353165243,0.07149426449799896,0.002775728818627185,-0.024896798603795532,0.008749256683525275,0.055094062703681654,-0.039849900767829925,-0.05617466073013627,-0.03650878654064368,0.06309809633360873,0.05757569867870231],[-0.021005133076071693,-0.02851996367423819,0.014815335123290418,0.04246374545398311,0.03629098201033221,0.02084337619303847,0.02588798281738336,-0.022343633784537645,0.03308525164987852,-0.05608929976022042,0.056049618626834455,-0.006073566675519615,0.058539178371180375,-0.03274285377362984,0.022314655042342618,-0.06191482230172413,-0.00848889269272167,-0.014956567367727158,0.06298649456801804,0.05487446245066989,-0.07140450920775239,0.07564360788982406,0.054510981797024446,0.04941811311841683,0.05934798116552513,-0.06067962302705432,0.04246052379589399,-0.07389379906038207,0.02594641649459352,0.0334522452551594,0.034141205140673994,0.007056944795400144],[0.05197689680053379,0.035165378465354294,-0.07780088035742404,-0.004980361431255492,0.012597851771169677,0.03667815592457503,0.005985447333386115,-0.017109949840201644,-0.019550810662349642,0.039469628707782936,0.0377835604698251,-0.0427084776403885,-0.03812638254289448,0.04551918240765633,0.07651773138290417,0.06576884308256468,-0.06594244239126107,0.030047394134798983,-0.07788994882971065,-0.07313297268780858,-0.033736518146629244,-0.016284240434770184,-0.0689629279726959,0.0701258220256357,-0.060372645030398187,0.026773896941992253,-0.018390825506696233,0.04980579375679574,0.045949904903657815,0.04503375542346412,0.003165098956954146,-0.02049851697153557],[-0.06461621390024998,0.015911528095296265,0.06384490121554513,0.011364189345233436,-0.009378438795014835,0.06162348116054374,0.06539480456842404,-0.07618951014424867,0.020170303951017446,-0.06058287066398624,0.0024243487809190445,-0.02937505574409139,0.05268304597740746,-0.029030403868843757,-0.015431078484867009,-0.014014295301905247,0.040265289632256146,0.005364115631467714,0.051063898026862384,0.07652745534324644,0.04486265078235001,-0.018500538872164934,0.027659475648498286,-0.018035088667525637,0.04502269934876009,-0.002239840292661957,-0.03793771977860047,-0.0318594244368329,-0.060611898777089036,0.04673181222942442,-0.0133906097202479,0.04237074303930809],[0.030821788224918836,0.07644418791485559,-0.0427745325369178,-0.07752154035404285,0.03532999336660633,0.06028216285983136,-0.062479067734230315,0.023866834401042508,0.023759954357483223,0.03883770638842457,-0.01338261441387853,0.045170365302705975,0.0026930621839453134,-0.07965763816540568,0.02734065205785048,-0.009256906101789558,0.01704923013538115,-0.02068384554571285,-0.004326238710395322,-0.006195239231915575,-0.0009710500293532709,0.03344049314029973,-0.07261263159794835,-0.0704696595591575,0.07858701185086221,0.03061855718454433,-0.06398988150631546,0.07135239392819388,-0.0016605540920596323,0.00734588594637435,-0.00645442767798364,-0.06729988435594138],[0.03940191327260628,0.008254979792540598,0.016678502055360894,0.03339299992316082,-0.04055893239085506,0.06305822705072049,0.028216467506601742,0.04198538830568711,-0.014405585544434912,-0.034782748227048015,-0.04925213458443503,0.034720512773981305,0.05430330870645923,-0.015438675351835893,0.04221817518072711,-0.015811657090655656,0.022248935705421788,0.033762237751464086,0.06187367854210642,-0.054536124462900515,-0.024873983093968217,-0.07675795126885196,-0.006621279069632224,-0.06260775862319146,-0.0029079144581782568,0.017577726244892483,-0.06585191613778837,-0.058801625050358894,0.013795487763758593,-0.05926233186137894,0.04812369823574973,0.036703966297066],[-0.06471623696100488,-0.05557685801316044,0.06475622797497356,-0.028563160398328055,-0.05146801140115551,-0.021051662415186828,0.07688602435718998,-0.045462845394646706,-0.0046129819869087235,0.06404305637530507,0.03856644031752815,0.07375073747846884,-0.009066649606158134,-0.07430249581876833,0.0732885779277561,0.05042430825938678,-0.07519538344982343,0.07255985294028748,0.007346618559838661,-0.02320569623169929,-0.05984945478985143,-0.005062374293157548,-0.05804950306622138,0.0689905507906219,-0.0021181419330181944,-0.0007214586706837389,-0.06938957627502278,0.0063692482650526405,0.05126081858188543,-0.054835294859659545,0.0283691818280815,0.01773021113400379],[0.07378444308108635,0.07503130035825221,0.02908721633416446,-0.033659354718193375,0.050539282152805634,0.028411390435732167,-0.025652300645286064,-0.05905412660984728,0.05236624243993852,-0.07687982158285361,-0.05064478522556048,0.0270476292251723,-0.07682656205209817,0.00404183965791774,-0.04064833250737216,-0.04774488786321832,-0.022267373293413315,0.014699839145502297,0.03417082914425794,-0.03189360437716601,-0.037123823209284465,-0.055076716436257715,-0.050153519685085704,-0.04882539511618619,-0.031459592503846515,0.03473616707068686,0.022725639762568126,0.04328583600554066,-0.06101048924539725,0.026792175037904736,-0.014389860247038366,0.036347699236243494],[0.04626524101053871,0.005067561021891917,-0.06210817611056109,0.026425308076646767,-0.05976483253879121,0.04734066895370424,0.04833746069065552,0.04467504154548378,0.037809524167279826,-0.041729563404905023,-0.015011513143474195,0.06681705066209502,-0.006428149010737266,0.008312894433402787,-0.07077955771218344,0.01679665318114955,-0.028567950181633307,0.03802099053781875,-0.047651803075160475,-0.07242678780277403,0.03272647765774085,0.07736897427002555,0.07764882099578992,-0.010246757381638924,-0.026448298225008368,-0.02820427250738465,-0.04439371133677824,0.052256336731668476,0.056224394038474665,0.013690561599388418,-0.05279337640217445,-0.021929909571075525],[-0.0689266748700511,-0.007717885012199888,-0.004202519550432798,0.059847256692181175,-0.02041736852161767,0.07863379841279165,0.02161771799852598,-0.034565817483528445,-0.015706907073363488,-0.07845446493074895,0.03328204662532683,-0.0414431638663339,-0.0677429195223867,0.04234844634893904,-0.04542404971556552,0.06355561199842082,-0.026299968788864467,0.03588838518491136,-0.06520358651881047,0.0270148406046663,-0.003837370555393599,0.04688555657810407,0.004541695651011285,-0.04360203940294399,0.05542542824799131,-0.0012631289055447387,-0.046925013716035836,-0.01724279205030771,-0.022605951236019273,-0.06582676819679317,0.06878662495687006,-0.06386617038322584],[0.06034573960159899,-0.005866961634208148,-0.03722896028491061,0.04104773380822349,0.02782982195036085,0.027829492767715056,-0.07351920576189641,0.0065729034131768865,-0.06548848745032518,0.053635528726333495,-0.01738032237475315,-0.01213595672799174,0.02037347869946693,-0.009370079941901005,0.02855931431221423,0.012254514407297773,-0.06504288869518415,-0.014576626779794849,0.03286458952270546,0.06529674334776524,0.06794585681713707,0.006908100385533467,0.05861749843279786,0.04254587345391517,-0.04500020545416014,0.06645227695904986,0.06657870721976904,-0.006435205726280452,-0.03051508817035794,-0.07816638531104475,0.077220947874392,0.03200837800506609],[-0.07803184212529303,-0.041751609268199416,-0.0081110001724915,0.059662679726012705,0.070108408543148,0.0679451950242813,0.07545744013219703,0.03425508996186506,-0.001090906653061427,0.07735023561033695,0.0682731702478122,0.04796543745983599,-0.0050735269664737015,0.07034277184898553,-0.021214945763870327,-0.021468845680465448,-0.005278847913515475,0.07326962550317924,0.07618757711991538,0.03120065077671244,-0.06760685076926824,0.008606582785482805,0.0005724751670680706,0.0565216844200372,0.0006529184192616833,0.03121862502032491,-0.017451740017879955,0.055917243150963206,-0.003625653168177617,0.07817880265509806,-0.035439361954176574,-0.03910019066285596],[-0.057373093309939005,0.031826877784849814,-0.047923951088953365,-0.06998781850788918,0.07147327545374109,-0.027134496000026938,-0.012071142731428758,0.050526167979479356,0.009183657977860554,-0.07187146167823541,-0.01803687379391885,-0.057829590416058035,0.05968821114245805,-0.05714585583227429,0.028246327580869257,0.0694991133224122,-0.006483427669698477,-0.0657408377978722,0.06618528544380918,0.03932739443567922,-0.03135573217477921,-0.04361295468182144,-0.033874611452335425,0.02187369376275823,0.05597663124904555,0.014180961085149851,-0.011953230856120933,0.014549340841263553,-0.07953778536906096,0.0572103739877919,0.03479489594212065,0.022307447357525434],[-0.05517736708562076,0.037113227812430025,-0.05436799002735224,0.061970189987257965,0.016028885894054004,-0.03973126884964364,-0.07310436598719523,-0.06522991451087876,-0.06060111576362283,-0.0457713170005961,-0.039658723564116156,0.0010098078586764508,-0.020290941429447214,-0.02094947975763118,0.026555845629620323,0.018005438961815945,-0.0039689798851952895,0.02780396790180613,-0.07957065223463607,0.015071614549401882,-0.041606203272860846,-0.04739838227941421,-0.0060990372380436975,0.04187950004547297,-0.007367849063601731,0.03201497818096778,0.06204298497312315,0.013649731647333588,0.07443329914674889,0.006653362430425774,-0.05419722925787106,0.0767549094565426],[0.052549565145547664,0.01700992877886094,0.038259150363580824,-0.07205742067691207,-0.03333415001098066,0.028601555548985816,-0.06362032645598704,0.05002924016031886,-0.0070167930516836785,0.06625907273444974,-0.06959817888852461,0.060443424724619624,-0.0738122078748102,0.03465575381271792,0.03729612005566135,-0.03744403394947151,0.001873019732425124,-0.07762348280414166,0.07057355630472754,-0.04422146718795993,0.06340393566378803,0.07507879827736823,0.005444895040077516,-0.002712944535023923,0.041556471337346704,-0.07823167159474347,-0.041582149538869045,-0.06901932392158006,-0.006451288434281735,0.009474423809393395,-0.057524886529524547,-0.011230515241109865],[-0.0018870443259724756,0.044632809941418175,-0.04827852168806555,-0.024015445583981596,-0.07787648445548083,0.010760677407951086,-0.07123682436186853,-0.07960592622732725,0.057212129419733096,-0.07041256909605283,-0.06509532269749005,-0.03193488622035748,0.0014437002181026948,0.008183018203280157,0.036485019938667915,-0.07248159264478235,-0.05389691079485088,-0.019152726383813566,-0.06695990172164114,0.07300178916297216,-0.07172286895909719,0.00555390119207072,-0.032569148308116434,0.05573872019978317,-0.06040497984682848,0.008476236954724548,0.02258189478587673,0.005940069157668079,-0.06668889078914272,0.029779882498429056,-0.036120411347968895,0.05256563504527602],[-0.014110968023472226,-0.031764877239134875,-0.03919970314184761,-0.01914466913914309,0.0016212732386469142,-0.07119154925932074,-0.05817660981493726,0.07671923759036094,0.023131192865791628,0.028901362764657768,0.012589095747586918,-0.03837601875872517,0.07655245710358007,-0.0618970046651188,0.07902055837028375,0.06743695332833295,-0.0481882772857365,-0.03848906511223962,0.056070954145397464,0.011505770029710455,-0.04896389893489532,0.07607820088554988,-0.07647719478551493,0.05617197691249147,-0.042826967169340355,0.06613745482059584,-0.0006943758259236044,0.009455960314628614,0.06223902974578936,0.0413553573923595,0.051369497048077015,0.06126519220428524],[0.020245582337398316,0.07644432724245119,-0.015899540900368214,0.0003232084161405996,-0.052228775295651356,0.045032608250148445,0.024111872541777754,-0.05703238944217183,0.03965449661286462,-0.0022407336471024775,0.013791763928172898,0.06937159720072412,-0.051959789824860964,-0.017383095311032937,-0.006953760035089865,-0.07724405079639228,-0.03201407662911196,0.04229659036011206,0.015867925052715504,-0.0010702058509645396,-0.03501805418660444,0.0450020882992966,-0.06353604017627748,0.039018999829516954,-0.06541394278314519,-0.05684496260248301,-0.05253474124406289,0.03631983325239849,0.05172209767781198,-0.01127325159447419,-0.02651934608406943,0.010128695735747414],[-0.021037989917887037,0.05800145289993751,0.05284932119261025,-0.06257996223047763,-0.018327459899047778,-0.056252533348491465,-0.04708944642357038,-0.07496587807774564,-0.040001803620351384,0.046896678443530196,0.024928497536418223,-0.030344421913329533,0.00488873260522403,0.014145650719767394,0.057529880481782245,0.008583728596567058,0.009628372826257336,-0.012179611458057044,0.04844783877163432,-0.0645326192164308,-0.04952681693542365,0.024664980810677764,-0.048480797687169196,-0.054286116304597384,-0.0504335548589677,0.04097662860138093,0.04299799482989963,-0.03471550567314953,-0.07042004848905858,-0.0008288214122356419,-0.005206028609818225,0.05359946476061851],[0.06681949932747332,-0.04471965122583924,0.025650585754436864,0.07674776375326979,-0.05125386176879182,0.014579949142616344,-0.07936734121819745,0.022466138987513276,-0.009630665541407929,-0.0252865128297544,0.07875134311727382,0.01381123529462247,-0.004941226469366761,0.01768596623928001,0.03567842364813853,0.05753370328672629,0.029409117105249905,0.012520977210129208,-0.023143825097543903,0.06830116999876691,0.02065640132241535,0.018700397879202746,-0.07732656170239459,0.02982313149842289,-0.0770748527277447,-0.01791394666741921,-0.0374776114511657,-0.06571478795755843,-0.07063362522706115,-0.07409149745145302,-0.003577569053141133,-0.0754922764180389],[-0.055945454913218104,0.007445676060825079,0.07148369255948807,0.061850534825570666,0.04065021054281669,-0.05811518725196199,0.04506046129463147,-0.0402074234056882,0.03529193157454022,0.004656149269219673,0.049434699085477055,0.05733949922887775,0.02019214150996433,-0.07091636572814242,-0.0379158236037657,-0.016047957585846553,-0.01840995790717788,0.03702279437671206,0.017447754322227865,-0.05616531414454881,-0.047447762428240385,-0.06674338323188328,-0.0115863558689972,0.03205514729714082,0.06986040933770236,0.03636661908388801,0.03273331439402502,-0.01092382441944885,-0.024046953778248843,-0.06046406125265928,0.07092847394053427,0.01010029094088813]],"bias":[0.0,0.0,0.0,0.0,0.0,0.0,0.0,0.0,0.0,0.0,0.0,0.0,0.0,0.0,0.0,0.0,0.0,0.0,0.0,0.0,0.0,0.0,0.0,0.0,0.0,0.0,0.0,0.0,0.0,0.0,0.0,0.0]},{"weight":[[0.022086226307015705,-0.02314722079197143,0.03860461537375685,-0.03797600065289872,-0.011668342460756955,0.006306821837684211,0.007537688213284925,0.018009694884322885,0.03174106178565458,0.02089852457319051,0.01405787791961477,-0.03702635862550297,-0.027564025183447232,0.020974315795833746,-0.005840579637513325,-0.004026881399654451,0.013589213086007523,-0.007459152544701746,0.024686329717868515,0.008208280325373796,0.028449764382060018,0.03404580673970505,-0.014862538936414014,-0.0358278748240717,-0.01586015609472472,0.022503904232525525,0.00944647434548803,-0.035255557128183304,0.018207239041150645,0.0267129190405996,0.023850968947099906,0.015473728982819547]],"bias":[0.0]}]}